<?xml version="1.0"?>
<opencv_storage>
<opencv_ml_svm>
  <format>3</format>
  <svmType>C_SVC</svmType>
  <kernel>
    <type>RBF</type>
    <gamma>5.0625000000000009e-01</gamma></kernel>
  <C>1.0000000000000001e-01</C>
  <term_criteria><epsilon>9.9999999999999995e-07</epsilon>
    <iterations>500</iterations></term_criteria>
  <var_count>512</var_count>
  <class_count>2</class_count>
  <class_labels type_id="opencv-matrix">
    <rows>2</rows>
    <cols>1</cols>
    <dt>i</dt>
    <data>
      0 1</data></class_labels>
  <sv_total>1000</sv_total>
  <support_vectors>
    <_>
      0. 0. 0. 0. 0. 0. 0. 0. 0. 0. 0. 0. 0. 0. 0. 0. 0. 0. 0. 0. 0.
      1.96078438e-02 0. 0. 0. 0. 0. 0. 0. 0. 0. 0. 0. 0. 0. 0. 0. 0. 0.
      0. 1.96078438e-02 0. 0. 0. 0. 0. 0. 0. 0. 0. 0. 0. 1.96078438e-02
      0. 0. 0. 0. 0. 0. 0. 0. 0. 0. 1.96078438e-02 0. 0. 0. 0. 0. 0. 0.
      0. 0. 1.96078438e-02 0. 0. 0. 0. 0. 0. 0. 0. 0. 0. 1.96078438e-02
      0. 0. 0. 0. 0. 0. 0. 0. 0. 0. 0. 1.96078438e-02 0. 0. 0. 0. 0.
      1.96078438e-02 0. 0. 0. 0. 0. 0. 1.96078438e-02 1.96078438e-02 0.
      1.96078438e-02 0. 0. 1.96078438e-02 0. 0. 0. 0. 0. 0. 0. 0.
      1.96078438e-02 0. 0. 0. 0. 0. 0. 0. 0. 0. 1.96078438e-02 0. 0. 0.
      0. 0. 0. 0. 0. 0. 0. 0. 0. 0. 1.96078438e-02 0. 0. 0. 0. 0. 0. 0.
      0. 0. 0. 0. 0. 0. 0. 0. 1.96078438e-02 0. 0. 0. 0. 0. 0. 0. 0. 0.
      0. 0. 0. 0. 0. 0. 0. 0. 1.96078438e-02 0. 1.96078438e-02 0. 0. 0.
      0. 0. 1.96078438e-02 0. 0. 0. 0. 0. 0. 0. 0. 0. 1.96078438e-02 0.
      0. 0. 0. 3.92156877e-02 0. 0. 0. 0. 0. 0. 0. 0. 0. 0. 0. 0. 0. 0.
      0. 0. 0. 0. 0. 0. 0. 0. 0. 0. 0. 0. 0. 0. 0. 0. 0. 0. 0. 0. 0. 0.
      0. 0. 0. 1.96078438e-02 0. 0. 0. 0. 0. 1.96078438e-02 0. 0. 0. 0.
      0. 0. 0. 1.96078438e-02 0. 0. 0. 0. 0. 0. 0. 0. 0. 0. 0. 0. 0. 0.
      0. 0. 0. 0. 0. 0. 0. 0. 0. 0. 0. 0. 0. 0. 0. 0. 0. 0.
      1.96078438e-02 0. 1.96078438e-02 0. 0. 0. 0. 0. 0. 0.
      3.92156877e-02 0. 0. 0. 0. 0. 0. 0. 0. 0. 0. 0. 0. 0. 0. 0. 0. 0.
      0. 0. 0. 0. 0. 0. 0. 0. 0. 1.96078438e-02 0. 0. 0. 1.96078438e-02
      0. 0. 0. 0. 0. 0. 0. 0. 0. 0. 1.96078438e-02 1.96078438e-02 0. 0.
      0. 0. 0. 0. 0. 0. 0. 0. 0. 0. 0. 0. 0. 0. 0. 0. 0. 0. 0. 0. 0. 0.
      0. 1.96078438e-02 0. 0. 0. 0. 0. 0. 0. 0. 0. 0. 1.96078438e-02 0.
      0. 0. 0. 0. 0. 0. 0. 0. 0. 0. 0. 0. 1.96078438e-02 0. 0. 0. 0. 0.
      0. 0. 0. 0. 0. 0. 0. 0. 0. 0. 0. 1.96078438e-02 0. 0. 0. 0.
      1.96078438e-02 0. 0. 0. 1.96078438e-02 0. 0. 0. 0. 0. 0. 0. 0. 0.
      0. 1.96078438e-02 0. 0. 0. 0. 0. 0. 0. 0. 1.96078438e-02 0.
      1.96078438e-02 0. 0. 0. 0. 0. 1.96078438e-02 0. 1.96078438e-02 0.
      0. 0. 0. 0. 0. 0. 0. 0. 0. 0. 0. 0. 0. 0. 0. 0. 0. 0. 0. 0. 0. 0.
      1.96078438e-02 0. 0. 0. 0. 0. 0. 0. 0. 0. 1.96078438e-02 0. 0. 0.
      0. 0. 1.96078438e-02 0. 1.96078438e-02 0. 0. 0. 0. 0. 0. 0. 0. 0.
      0. 0. 1.96078438e-02 0. 0. 3.92156877e-02 0. 0.</_>
    <_>
      3.03030312e-02 0. 0. 6.06060624e-02 3.03030312e-02 0. 0. 0. 0. 0.
      0. 0. 0. 0. 0. 0. 0. 0. 0. 0. 0. 0. 0. 3.03030312e-02 0. 0. 0. 0.
      0. 0. 0. 0. 0. 0. 0. 6.06060624e-02 0. 0. 0. 0. 0. 0. 0. 0. 0. 0.
      0. 0. 0. 0. 0. 0. 0. 0. 0. 3.03030312e-02 0. 0. 0. 0. 0. 0. 0. 0.
      0. 0. 6.06060624e-02 0. 0. 0. 0. 0. 0. 0. 0. 0. 0. 0. 0. 0. 0. 0.
      0. 0. 0. 0. 0. 0. 0. 0. 0. 0. 0. 0. 0. 0. 0. 0. 0. 0. 0. 0. 0. 0.
      0. 0. 0. 0. 0. 0. 0. 0. 0. 0. 0. 0. 0. 0. 0. 0. 3.03030312e-02 0.
      0. 0. 0. 0. 0. 0. 0. 0. 3.03030312e-02 0. 0. 0. 0. 0. 0. 0. 0. 0.
      0. 0. 0. 0. 0. 0. 0. 0. 0. 0. 0. 0. 0. 0. 0. 0. 0. 0.
      3.03030312e-02 0. 0. 0. 0. 0. 0. 0. 0. 0. 0. 0. 0. 0. 0. 0. 0. 0.
      0. 3.03030312e-02 0. 0. 3.03030312e-02 0. 0. 0. 0. 0. 0. 0.
      3.03030312e-02 0. 0. 0. 0. 0. 0. 0. 0. 0. 0. 0. 0. 0. 0. 0. 0. 0.
      3.03030312e-02 0. 0. 0. 3.03030312e-02 0. 0. 0. 0. 0. 0. 0. 0. 0.
      0. 0. 0. 0. 0. 0. 0. 0. 0. 0. 0. 0. 0. 0. 0. 0. 0. 0. 0. 0. 0. 0.
      3.03030312e-02 0. 0. 0. 0. 0. 0. 0. 0. 0. 0. 0. 0. 0. 0. 0. 0. 0.
      0. 0. 0. 0. 0. 0. 0. 0. 0. 0. 0. 0. 0. 0. 0. 0. 0. 0. 0. 0.
      3.03030312e-02 0. 0. 0. 0. 0. 0. 0. 0. 0. 0. 0. 0. 0. 0. 0. 0. 0.
      0. 0. 0. 0. 0. 0. 3.03030312e-02 0. 0. 0. 0. 0. 0. 0. 0. 0. 0. 0.
      0. 0. 0. 0. 0. 0. 0. 0. 0. 0. 3.03030312e-02 0. 3.03030312e-02 0.
      0. 0. 0. 0. 0. 0. 0. 0. 0. 0. 0. 0. 0. 0. 0. 0. 0. 0. 0. 0. 0. 0.
      0. 0. 0. 0. 0. 0. 0. 0. 0. 0. 0. 0. 0. 0. 0. 0. 0. 0. 0. 0. 0. 0.
      0. 0. 0. 0. 0. 0. 0. 0. 0. 0. 0. 0. 0. 0. 0. 0. 0. 0. 0. 0. 0. 0.
      0. 0. 0. 0. 0. 0. 0. 3.03030312e-02 3.03030312e-02 0. 0. 0. 0. 0.
      0. 0. 0. 0. 0. 0. 0. 0. 0. 0. 0. 0. 0. 0. 0. 0. 3.03030312e-02 0.
      0. 3.03030312e-02 0. 0. 3.03030312e-02 0. 0. 0. 0. 3.03030312e-02
      0. 0. 0. 0. 3.03030312e-02 0. 0. 0. 0. 0. 0. 0. 0. 0. 0. 0. 0. 0.
      0. 0. 0. 0. 0. 0. 0. 0. 0. 0. 0. 0. 0. 0. 0. 0. 0. 0. 0. 0. 0. 0.
      0. 0. 0. 0. 0. 0. 0. 0. 0. 0. 0. 0. 0. 0. 0. 0. 0. 0.
      3.03030312e-02 0. 0. 0. 0. 0. 0. 0. 0. 0. 0. 6.06060624e-02 0. 0.
      0. 0.</_>
    <_>
      0. 0. 0. 0. 0. 0. 0. 0. 0. 0. 1.78571437e-02 0. 0. 0. 0. 0. 0. 0.
      0. 0. 0. 0. 0. 1.78571437e-02 0. 1.78571437e-02 0. 0. 0. 0.
      1.78571437e-02 0. 0. 0. 0. 1.78571437e-02 0. 0. 0. 0. 0. 0. 0. 0.
      0. 0. 1.78571437e-02 0. 0. 0. 0. 0. 0. 0. 0. 1.78571437e-02 0. 0.
      0. 0. 0. 0. 0. 0. 0. 0. 1.78571437e-02 0. 0. 0. 0. 0. 0. 0. 0. 0.
      0. 0. 0. 0. 1.78571437e-02 0. 0. 0. 0. 0. 0. 0. 3.57142873e-02 0.
      0. 0. 0. 0. 0. 0. 0. 0. 1.78571437e-02 0. 0. 0. 0. 0. 0. 0. 0. 0.
      0. 0. 0. 0. 0. 0. 1.78571437e-02 0. 0. 0. 0. 0. 0. 0. 0. 0. 0. 0.
      0. 0. 0. 0. 0. 0. 0. 0. 0. 0. 0. 0. 0. 0. 0. 0. 0. 1.78571437e-02
      0. 0. 0. 0. 0. 0. 0. 0. 0. 0. 0. 0. 0. 3.57142873e-02 0. 0. 0. 0.
      0. 0. 0. 0. 0. 0. 0. 0. 0. 0. 0. 0. 0. 0. 0. 0. 0. 0. 0. 0.
      1.78571437e-02 0. 1.78571437e-02 0. 0. 0. 1.78571437e-02 0. 0. 0.
      0. 0. 0. 0. 1.78571437e-02 0. 0. 0. 0. 0. 0. 0. 0. 0. 0. 0.
      1.78571437e-02 0. 0. 0. 1.78571437e-02 0. 0. 0. 0. 0. 0. 0. 0. 0.
      0. 0. 0. 0. 0. 0. 0. 0. 0. 1.78571437e-02 0. 0. 1.78571437e-02 0.
      1.78571437e-02 0. 1.78571437e-02 0. 0. 0. 0. 0. 0. 0. 0. 0. 0. 0.
      0. 0. 0. 1.78571437e-02 3.57142873e-02 0. 0. 0. 0. 0. 0. 0. 0. 0.
      0. 0. 0. 0. 0. 0. 0. 0. 0. 0. 0. 0. 0. 0. 0. 0. 0. 0. 0. 0. 0. 0.
      0. 0. 0. 0. 0. 0. 0. 0. 0. 0. 0. 0. 0. 0. 0. 0. 0. 0.
      5.35714291e-02 0. 0. 0. 0. 0. 0. 0. 0. 0. 0. 0. 0. 1.78571437e-02
      0. 0. 0. 0. 0. 0. 0. 0. 0. 0. 0. 0. 0. 0. 0. 0. 0. 0. 0. 0. 0. 0.
      0. 0. 0. 0. 0. 0. 0. 0. 0. 0. 0. 0. 0. 0. 0. 0. 0. 0. 0. 0. 0. 0.
      1.78571437e-02 0. 0. 0. 0. 0. 0. 0. 0. 0. 3.57142873e-02 0.
      1.78571437e-02 3.57142873e-02 0. 0. 0. 1.78571437e-02 0. 0. 0. 0.
      0. 3.57142873e-02 0. 0. 0. 0. 0. 0. 0. 0. 0. 0. 0. 3.57142873e-02
      0. 1.78571437e-02 0. 1.78571437e-02 0. 0. 0. 0. 0. 0. 0. 0.
      1.78571437e-02 0. 0. 0. 0. 1.78571437e-02 0. 0. 0. 0.
      1.78571437e-02 0. 0. 0. 0. 0. 0. 0. 0. 0. 0. 0. 0. 0. 0. 0. 0. 0.
      0. 0. 0. 0. 0. 0. 0. 0. 0. 0. 0. 0. 1.78571437e-02 0.
      1.78571437e-02 0. 0. 0. 0. 0. 1.78571437e-02 0. 0. 0. 0. 0. 0. 0.
      0. 0. 0. 0. 0. 0. 0. 0. 0. 0. 0. 0. 0. 0. 0. 0. 1.78571437e-02 0.
      0. 0. 0. 0. 0. 0. 0. 0. 0. 0. 1.78571437e-02 0. 0. 0. 0. 0. 0. 0.
      0. 0. 0. 3.57142873e-02 0. 0. 0. 0. 0. 0.</_>
    <_>
      1.03092780e-02 1.03092780e-02 0. 0. 0. 1.03092780e-02
      2.06185561e-02 0. 0. 0. 0. 2.06185561e-02 0. 1.03092780e-02 0.
      1.03092780e-02 0. 0. 0. 0. 0. 0. 0. 1.03092780e-02 0. 0. 0. 0. 0.
      0. 0. 0. 0. 0. 0. 0. 1.03092780e-02 0. 1.03092780e-02 0. 0. 0. 0.
      0. 0. 0. 1.03092780e-02 0. 0. 0. 0. 0. 1.03092780e-02
      1.03092780e-02 0. 1.03092780e-02 0. 0. 0. 0. 0. 2.06185561e-02 0.
      1.03092780e-02 0. 1.03092780e-02 0. 0. 0. 0. 0. 0. 0. 0. 0. 0. 0.
      0. 1.03092780e-02 0. 0. 0. 0. 0. 1.03092780e-02 0. 0.
      1.03092780e-02 0. 0. 0. 0. 1.03092780e-02 0. 0. 0. 0. 0. 0. 0. 0.
      1.03092780e-02 0. 0. 0. 1.03092780e-02 0. 0. 0. 0. 0.
      1.03092780e-02 0. 0. 0. 0. 0. 0. 0. 0. 0. 0. 0. 0. 0. 0. 0. 0. 0.
      0. 0. 0. 0. 0. 0. 0. 0. 0. 0. 0. 0. 0. 0. 0. 0. 0. 0.
      1.03092780e-02 0. 0. 0. 0. 0. 0. 2.06185561e-02 0. 0. 0. 0.
      1.03092780e-02 0. 0. 1.03092780e-02 1.03092780e-02 0.
      1.03092780e-02 0. 0. 0. 0. 0. 0. 0. 0. 0. 0. 0. 1.03092780e-02 0.
      0. 0. 0. 2.06185561e-02 0. 0. 0. 2.06185561e-02 0. 0.
      1.03092780e-02 0. 1.03092780e-02 1.03092780e-02 0. 0. 0. 0. 0. 0.
      0. 0. 0. 0. 0. 0. 0. 0. 0. 0. 2.06185561e-02 0. 0. 0. 0. 0.
      1.03092780e-02 0. 0. 1.03092780e-02 0. 0. 0. 0. 0. 0. 0. 0. 0. 0.
      0. 0. 0. 0. 0. 0. 1.03092780e-02 0. 0. 0. 1.03092780e-02 0. 0. 0.
      0. 0. 0. 1.03092780e-02 1.03092780e-02 1.03092780e-02 0. 0.
      2.06185561e-02 1.03092780e-02 1.03092780e-02 0. 0. 0.
      1.03092780e-02 0. 1.03092780e-02 0. 0. 0. 0. 0. 0. 1.03092780e-02
      0. 0. 0. 1.03092780e-02 0. 0. 0. 0. 0. 0. 0. 0. 0. 0. 0.
      2.06185561e-02 0. 0. 0. 0. 0. 0. 0. 0. 0. 0. 0. 0. 0. 0. 0. 0. 0.
      0. 0. 0. 0. 0. 0. 0. 0. 0. 1.03092780e-02 1.03092780e-02 0. 0. 0.
      0. 0. 0. 0. 0. 0. 0. 0. 0. 0. 0. 1.03092780e-02 0. 1.03092780e-02
      0. 0. 0. 0. 0. 2.06185561e-02 1.03092780e-02 0. 0. 0. 0.
      1.03092780e-02 0. 0. 1.03092780e-02 0. 0. 0. 0. 0. 0.
      1.03092780e-02 0. 0. 0. 0. 0. 0. 0. 0. 1.03092780e-02 0. 0. 0.
      1.03092780e-02 0. 0. 0. 0. 0. 1.03092780e-02 0. 0. 0. 0. 0. 0.
      1.03092780e-02 1.03092780e-02 0. 1.03092780e-02 0. 0. 0. 0. 0. 0.
      0. 0. 0. 0. 0. 0. 0. 1.03092780e-02 0. 0. 0. 0. 0. 0. 0. 0. 0. 0.
      1.03092780e-02 1.03092780e-02 0. 2.06185561e-02 1.03092780e-02 0.
      0. 0. 0. 1.03092780e-02 0. 0. 0. 0. 1.03092780e-02 0. 0. 0. 0. 0.
      0. 0. 0. 0. 0. 0. 0. 0. 1.03092780e-02 0. 0. 0. 1.03092780e-02 0.
      0. 0. 1.03092780e-02 0. 0. 0. 0. 0. 0. 0. 0. 0. 0. 0. 0. 0. 0. 0.
      0. 0. 0. 0. 0. 0. 0. 0. 0. 0. 0. 0. 0. 0. 0. 0. 0. 0.
      1.03092780e-02 0. 0. 0. 0. 0. 0. 1.03092780e-02 0. 1.03092780e-02
      0. 0. 0. 0. 0. 0. 0. 0. 0. 0. 0. 0. 0. 0. 1.03092780e-02 0.
      1.03092780e-02 0. 0. 1.03092780e-02 0. 0. 0. 0. 0. 1.03092780e-02
      1.03092780e-02 0. 1.03092780e-02</_>
    <_>
      0. 0. 0. 0. 0. 0. 0. 0. 0. 0. 0. 0. 0. 0. 0. 0. 0. 0. 0. 0. 0. 0.
      0. 0. 0. 0. 0. 0. 0. 0. 0. 0. 0. 0. 0. 0. 0. 0. 0. 0. 0. 0. 0. 0.
      0. 0. 0. 0. 0. 0. 0. 0. 0. 0. 0. 0. 0. 0. 0. 0. 0. 0. 0. 0. 0. 0.
      0. 0. 0. 0. 0. 0. 0. 0. 0. 0. 0. 0. 0. 0. 0. 0. 0. 0. 0. 0. 0. 0.
      0. 0. 0. 1.00000001e-01 0. 1.00000001e-01 0. 0. 0. 0. 0. 0. 0. 0.
      0. 0. 0. 0. 0. 0. 0. 0. 0. 0. 0. 0. 0. 0. 0. 0. 0. 1.00000001e-01
      0. 0. 0. 0. 0. 0. 0. 0. 0. 0. 0. 0. 0. 0. 0. 0. 0. 0. 0. 0. 0. 0.
      0. 0. 0. 0. 0. 0. 0. 0. 0. 0. 0. 0. 0. 0. 0. 0. 0. 0. 0. 0. 0. 0.
      0. 0. 0. 0. 0. 0. 0. 0. 0. 0. 0. 0. 0. 0. 0. 0. 0. 0. 0. 0. 0. 0.
      0. 0. 0. 0. 0. 0. 0. 0. 0. 0. 0. 0. 0. 0. 0. 0. 0. 0. 0. 0. 0. 0.
      0. 0. 0. 0. 0. 0. 0. 0. 0. 0. 0. 0. 0. 0. 0. 0. 0. 0. 0. 0. 0. 0.
      0. 0. 0. 0. 0. 0. 0. 0. 0. 0. 0. 0. 0. 0. 0. 0. 0. 0. 0. 0. 0. 0.
      0. 0. 0. 0. 0. 0. 0. 0. 0. 0. 0. 0. 0. 0. 0. 0. 0. 0. 0. 0. 0. 0.
      0. 0. 0. 0. 0. 0. 0. 0. 0. 0. 0. 0. 0. 0. 0. 0. 0. 0. 0. 0. 0. 0.
      0. 0. 1.00000001e-01 0. 0. 0. 0. 0. 0. 0. 0. 0. 0. 0. 0. 0. 0. 0.
      0. 0. 0. 0. 0. 0. 0. 0. 0. 0. 0. 0. 0. 0. 0. 0. 0. 0. 0. 0. 0. 0.
      0. 0. 0. 0. 0. 0. 0. 0. 0. 0. 0. 0. 0. 0. 0. 0. 0. 0. 0. 0. 0. 0.
      0. 0. 0. 0. 0. 0. 0. 0. 0. 0. 0. 1.00000001e-01 0. 0. 0. 0. 0. 0.
      0. 0. 0. 0. 0. 0. 0. 1.00000001e-01 0. 0. 0. 0. 0. 0. 0. 0. 0. 0.
      0. 0. 1.00000001e-01 0. 0. 0. 0. 0. 0. 0. 0. 0. 0. 0. 0. 0. 0. 0.
      1.00000001e-01 0. 0. 0. 0. 0. 0. 0. 0. 0. 0. 0. 0. 0. 0. 0. 0. 0.
      0. 0. 0. 0. 1.00000001e-01 0. 0. 0. 0. 0. 0. 0. 0. 0. 0. 0. 0. 0.
      0. 0. 0. 0. 0. 0. 0. 0. 1.00000001e-01 0. 0. 0. 0. 0. 0. 0. 0. 0.
      0. 0. 0. 0. 0. 0. 0. 0. 0. 0. 0. 0. 0. 0. 0. 0. 0. 0. 0. 0. 0. 0.
      0. 0. 0. 0. 0. 0. 0. 0. 0. 0. 0. 0. 0. 0. 0. 0. 0. 0. 0. 0. 0. 0.
      0. 0.</_>
    <_>
      0. 0. 0. 0. 0. 0. 0. 0. 0. 0. 0. 0. 0. 0. 0. 0. 0. 0. 0. 0. 0. 0.
      0. 0. 3.84615399e-02 0. 0. 0. 0. 3.84615399e-02 0. 0. 0. 0. 0. 0.
      0. 0. 0. 0. 0. 0. 0. 3.84615399e-02 0. 3.84615399e-02 0. 0. 0. 0.
      0. 0. 0. 0. 0. 0. 0. 0. 0. 0. 0. 0. 0. 0. 0. 0. 0. 0. 0. 0. 0. 0.
      0. 0. 0. 0. 0. 0. 0. 0. 0. 0. 0. 0. 0. 0. 0. 0. 0. 0. 0. 0. 0. 0.
      3.84615399e-02 0. 0. 0. 0. 0. 0. 0. 0. 0. 0. 0. 0. 0. 0. 0.
      3.84615399e-02 0. 3.84615399e-02 0. 0. 0. 0. 0. 0. 0. 0. 0. 0. 0.
      0. 0. 0. 0. 0. 0. 0. 0. 0. 0. 0. 0. 0. 0. 0. 0. 0. 0. 0. 0. 0. 0.
      0. 0. 0. 0. 0. 0. 0. 3.84615399e-02 0. 0. 0. 0. 0. 3.84615399e-02
      0. 0. 0. 0. 0. 0. 0. 0. 0. 0. 0. 0. 0. 0. 0. 0. 0. 0. 0. 0. 0. 0.
      0. 0. 0. 0. 0. 0. 0. 0. 0. 3.84615399e-02 0. 0. 0. 0. 0. 0. 0. 0.
      0. 0. 0. 0. 3.84615399e-02 0. 0. 0. 0. 0. 0. 0. 0. 0. 0. 0. 0. 0.
      0. 0. 0. 3.84615399e-02 0. 0. 0. 0. 0. 0. 0. 0. 0. 0. 0. 0. 0. 0.
      0. 0. 0. 0. 0. 0. 0. 0. 0. 0. 0. 0. 0. 0. 0. 0. 0. 0. 0. 0. 0. 0.
      0. 0. 0. 0. 0. 0. 0. 0. 3.84615399e-02 0. 0. 0. 0. 0. 0. 0. 0. 0.
      0. 0. 0. 0. 0. 0. 0. 0. 0. 0. 0. 3.84615399e-02 0. 0.
      3.84615399e-02 0. 0. 0. 0. 0. 0. 0. 0. 0. 0. 0. 0. 0. 0. 0. 0. 0.
      0. 0. 0. 0. 0. 0. 0. 0. 0. 3.84615399e-02 0. 0. 0. 0. 0. 0. 0. 0.
      0. 0. 0. 0. 0. 0. 0. 0. 0. 0. 0. 0. 0. 0. 0. 0. 0. 0. 0. 0. 0. 0.
      0. 0. 0. 0. 0. 0. 0. 0. 0. 0. 3.84615399e-02 0. 0. 0. 0. 0. 0. 0.
      0. 0. 0. 0. 0. 0. 0. 0. 0. 0. 0. 0. 0. 3.84615399e-02 0. 0. 0. 0.
      0. 0. 0. 0. 0. 0. 0. 0. 0. 0. 0. 0. 3.84615399e-02 0. 0. 0. 0. 0.
      0. 0. 0. 0. 0. 3.84615399e-02 0. 0. 0. 0. 0. 0. 0. 0. 0. 0. 0. 0.
      0. 0. 0. 0. 0. 0. 0. 0. 0. 0. 0. 0. 0. 3.84615399e-02 0. 0.
      1.53846160e-01 0. 0. 0. 0. 0. 0. 0. 0. 0. 0. 0. 0. 0. 0. 0. 0.
      3.84615399e-02 0. 0. 0. 0. 0. 0. 0. 0. 0. 0. 0. 0. 0. 0. 0. 0. 0.
      0. 0. 0. 0. 0. 0. 0. 0. 0. 0. 0. 0. 0. 0. 0. 0. 0. 0. 0. 0. 0. 0.
      0. 0. 0. 0. 0. 0. 0. 0. 0. 0. 0. 0. 0. 0. 0. 0. 0. 0. 0.</_>
    <_>
      0. 0. 0. 0. 0. 0. 0. 0. 0. 2.22222228e-02 0. 0. 1.11111114e-02 0.
      0. 0. 0. 2.22222228e-02 0. 0. 0. 0. 0. 0. 0. 1.11111114e-02 0. 0.
      0. 0. 0. 0. 0. 0. 0. 0. 0. 1.11111114e-02 0. 0. 0. 0.
      1.11111114e-02 0. 0. 0. 0. 0. 0. 1.11111114e-02 0. 0. 0. 0. 0. 0.
      0. 0. 0. 1.11111114e-02 0. 0. 0. 0. 0. 0. 0. 0. 0. 0. 0. 0. 0. 0.
      1.11111114e-02 0. 0. 0. 0. 0. 0. 1.11111114e-02 0. 0. 0. 0. 0. 0.
      0. 0. 0. 0. 0. 0. 0. 0. 0. 0. 0. 0. 0. 0. 0. 0. 0. 0. 0. 0. 0. 0.
      0. 0. 0. 1.11111114e-02 0. 0. 0. 0. 0. 0. 1.11111114e-02 0. 0. 0.
      0. 0. 0. 0. 0. 1.11111114e-02 0. 0. 2.22222228e-02 0. 0. 0.
      1.11111114e-02 0. 0. 0. 0. 1.11111114e-02 0. 0. 0. 0. 0. 0. 0. 0.
      0. 0. 0. 0. 0. 0. 1.11111114e-02 0. 0. 0. 0. 1.11111114e-02
      1.11111114e-02 0. 0. 0. 0. 0. 0. 0. 0. 0. 1.11111114e-02 0.
      1.11111114e-02 0. 1.11111114e-02 0. 0. 0. 0. 0. 0. 0. 0. 0. 0. 0.
      1.11111114e-02 2.22222228e-02 1.11111114e-02 0. 0. 0. 0.
      3.33333351e-02 0. 1.11111114e-02 0. 0. 1.11111114e-02 0.
      1.11111114e-02 0. 0. 0. 0. 0. 0. 0. 0. 2.22222228e-02 0. 0.
      3.33333351e-02 0. 0. 0. 0. 0. 1.11111114e-02 0. 0. 0. 0. 0. 0. 0.
      0. 0. 0. 0. 0. 0. 1.11111114e-02 0. 0. 0. 0. 0. 1.11111114e-02
      1.11111114e-02 0. 1.11111114e-02 0. 0. 0. 0. 0. 2.22222228e-02 0.
      0. 0. 0. 0. 0. 0. 0. 1.11111114e-02 0. 0. 0. 0. 0. 0. 0. 0. 0. 0.
      0. 0. 0. 0. 0. 0. 0. 0. 0. 0. 0. 0. 0. 0. 0. 0. 0. 0.
      5.55555560e-02 2.22222228e-02 0. 0. 0. 0. 0. 0. 0. 0. 0. 0. 0. 0.
      0. 0. 0. 0. 0. 1.11111114e-02 0. 0. 0. 0. 0. 0. 0. 0. 0. 0. 0. 0.
      1.11111114e-02 0. 0. 0. 1.11111114e-02 0. 0. 0. 0. 0. 0. 0. 0. 0.
      0. 0. 0. 0. 1.11111114e-02 0. 0. 1.11111114e-02 0. 0. 0. 0. 0.
      1.11111114e-02 1.11111114e-02 0. 0. 0. 0. 0. 0. 0. 1.11111114e-02
      0. 0. 0. 0. 0. 0. 0. 0. 0. 0. 0. 0. 0. 0. 0. 0. 0. 0. 0. 0. 0.
      1.11111114e-02 0. 0. 0. 0. 0. 1.11111114e-02 0. 0. 0. 0. 0. 0. 0.
      0. 2.22222228e-02 0. 0. 0. 1.11111114e-02 0. 0. 0. 0. 0. 0.
      1.11111114e-02 0. 3.33333351e-02 0. 0. 0. 0. 0. 1.11111114e-02
      1.11111114e-02 0. 0. 0. 0. 0. 0. 0. 0. 1.11111114e-02 0. 0. 0. 0.
      0. 0. 0. 0. 0. 0. 0. 0. 0. 1.11111114e-02 0. 1.11111114e-02 0. 0.
      1.11111114e-02 0. 0. 0. 0. 0. 0. 0. 0. 0. 0. 0. 0. 0. 0. 0. 0. 0.
      0. 0. 0. 0. 1.11111114e-02 0. 0. 0. 2.22222228e-02 0. 0.
      1.11111114e-02 0. 0. 1.11111114e-02 0. 0. 1.11111114e-02 0. 0. 0.
      0. 1.11111114e-02 0. 1.11111114e-02 0. 1.11111114e-02 0.
      1.11111114e-02 0. 0. 0. 0. 0. 0. 2.22222228e-02 0. 0. 0. 0. 0. 0.
      0. 0. 0. 0. 0. 0. 0. 0. 0. 0. 0. 0.</_>
    <_>
      0. 0. 0. 0. 0. 0. 0. 0. 0. 0. 0. 0. 0. 0. 0. 0. 0. 0. 0. 0. 0. 0.
      0. 1.81818176e-02 0. 0. 0. 0. 0. 0. 0. 0. 0. 0. 0. 0. 0. 0. 0. 0.
      0. 5.45454547e-02 0. 0. 0. 0. 0. 1.81818176e-02 0. 0. 0. 0. 0. 0.
      0. 0. 0. 1.81818176e-02 0. 0. 0. 0. 0. 0. 0. 1.81818176e-02 0. 0.
      0. 0. 0. 0. 0. 0. 0. 0. 0. 1.81818176e-02 0. 0. 0. 0. 0. 0. 0. 0.
      0. 0. 1.81818176e-02 0. 1.81818176e-02 0. 1.81818176e-02 0. 0. 0.
      0. 0. 0. 0. 0. 0. 0. 0. 0. 0. 0. 0. 0. 0. 0. 0. 1.81818176e-02 0.
      1.81818176e-02 0. 0. 0. 0. 0. 0. 0. 1.81818176e-02 0.
      1.81818176e-02 0. 0. 0. 0. 0. 0. 1.81818176e-02 0. 0. 0. 0. 0. 0.
      0. 0. 0. 0. 0. 0. 0. 0. 0. 1.81818176e-02 1.81818176e-02 0. 0. 0.
      0. 0. 0. 0. 0. 0. 0. 1.81818176e-02 0. 0. 0. 0. 0. 0. 0. 0. 0. 0.
      0. 0. 0. 0. 0. 0. 0. 0. 0. 0. 0. 0. 0. 0. 1.81818176e-02 0. 0. 0.
      0. 0. 0. 0. 0. 0. 0. 0. 0. 0. 0. 0. 0. 0. 0. 0. 0. 1.81818176e-02
      0. 0. 0. 0. 1.81818176e-02 0. 0. 0. 0. 1.81818176e-02 0. 0. 0. 0.
      0. 0. 0. 0. 0. 0. 1.81818176e-02 0. 0. 0. 0. 0. 0. 0. 0. 0. 0. 0.
      0. 1.81818176e-02 0. 0. 0. 0. 1.81818176e-02 0. 0. 0. 0. 0. 0. 0.
      0. 0. 0. 0. 0. 0. 0. 0. 0. 1.81818176e-02 1.81818176e-02
      1.81818176e-02 0. 1.81818176e-02 0. 0. 0. 0. 0. 1.81818176e-02 0.
      0. 0. 0. 0. 0. 0. 0. 0. 0. 0. 0. 0. 0. 0. 0. 0. 0. 1.81818176e-02
      0. 0. 0. 0. 0. 0. 0. 0. 0. 0. 0. 0. 0. 0. 0. 0. 0. 0. 0. 0.
      1.81818176e-02 1.81818176e-02 0. 0. 0. 0. 0. 0. 0. 0. 0. 0.
      1.81818176e-02 0. 0. 0. 0. 0. 0. 0. 0. 0. 0. 1.81818176e-02 0. 0.
      0. 0. 0. 0. 0. 0. 0. 0. 0. 0. 0. 0. 1.81818176e-02 0. 0. 0. 0. 0.
      0. 0. 0. 0. 0. 1.81818176e-02 1.81818176e-02 0. 0. 0. 0. 0. 0. 0.
      0. 3.63636352e-02 0. 0. 0. 0. 0. 0. 0. 0. 0. 0. 0. 0. 0. 0. 0. 0.
      0. 0. 0. 0. 0. 0. 0. 0. 0. 0. 0. 0. 0. 0. 0. 0. 0. 0. 0. 0. 0. 0.
      0. 0. 0. 0. 0. 0. 0. 0. 0. 0. 0. 0. 0. 0. 0. 0. 0. 0. 0. 0.
      1.81818176e-02 0. 0. 0. 0. 0. 0. 3.63636352e-02 1.81818176e-02 0.
      0. 0. 0. 0. 0. 1.81818176e-02 1.81818176e-02 0. 0. 0. 0. 0. 0. 0.
      0. 1.81818176e-02 0. 0. 0. 0. 0. 0. 0. 0. 1.81818176e-02 0. 0. 0.
      1.81818176e-02 0. 0. 0. 0. 0. 0. 0. 0. 1.81818176e-02 0. 0. 0. 0.
      0. 0. 0. 0. 0. 0. 0. 0. 0. 0. 0. 0. 0. 0. 1.81818176e-02 0. 0.
      1.81818176e-02 0. 1.81818176e-02 0. 0. 0. 0. 0. 0. 0.
      1.81818176e-02 0. 0. 0.</_>
    <_>
      0. 0. 0. 0. 0. 0. 0. 0. 9.25925896e-02 0. 1.85185187e-02 0. 0. 0.
      1.85185187e-02 0. 0. 0. 0. 0. 0. 0. 0. 0. 0. 0. 0. 0.
      3.70370373e-02 0. 0. 0. 0. 1.85185187e-02 0. 0. 0. 0. 0. 0. 0. 0.
      0. 0. 0. 0. 0. 0. 0. 0. 0. 0. 0. 1.85185187e-02 0. 0. 0. 0. 0. 0.
      0. 0. 0. 0. 0. 0. 0. 0. 0. 0. 0. 0. 0. 1.85185187e-02 0. 0. 0. 0.
      0. 1.85185187e-02 0. 1.85185187e-02 1.85185187e-02 0. 0. 0. 0.
      1.85185187e-02 0. 1.85185187e-02 0. 0. 0. 0. 0. 0. 0. 0. 0. 0. 0.
      0. 0. 0. 0. 0. 0. 0. 0. 0. 0. 0. 0. 0. 0. 0. 0. 3.70370373e-02 0.
      0. 0. 0. 0. 0. 0. 0. 0. 0. 0. 0. 0. 0. 0. 1.85185187e-02 0. 0. 0.
      0. 0. 0. 0. 0. 0. 0. 0. 0. 0. 1.85185187e-02 0. 0. 0. 0. 0. 0. 0.
      0. 0. 0. 0. 0. 0. 0. 0. 1.85185187e-02 0. 0. 0. 0. 1.85185187e-02
      0. 0. 0. 0. 0. 0. 0. 0. 0. 0. 0. 0. 0. 0. 0. 0. 0. 0. 0. 0. 0. 0.
      0. 0. 0. 0. 1.85185187e-02 0. 0. 0. 0. 0. 0. 0. 0. 3.70370373e-02
      0. 0. 0. 0. 0. 0. 0. 0. 0. 0. 0. 0. 0. 0. 0. 0. 0. 0. 0. 0. 0. 0.
      0. 0. 0. 0. 1.85185187e-02 0. 0. 0. 0. 0. 0. 0. 0. 1.85185187e-02
      0. 0. 0. 0. 0. 0. 0. 0. 0. 0. 0. 0. 0. 0. 0. 0. 1.85185187e-02 0.
      0. 0. 0. 0. 0. 0. 0. 0. 0. 0. 0. 0. 0. 1.85185187e-02 0. 0. 0. 0.
      0. 0. 0. 0. 0. 0. 0. 0. 0. 0. 1.85185187e-02 0. 0. 0. 0. 0.
      1.85185187e-02 0. 0. 1.85185187e-02 0. 0. 0. 0. 0. 0. 0. 0. 0.
      1.85185187e-02 0. 0. 0. 0. 0. 0. 0. 0. 0. 0. 0. 0. 0. 0. 0. 0. 0.
      0. 0. 0. 0. 0. 0. 0. 0. 1.85185187e-02 0. 0. 0. 0. 0. 0. 0. 0.
      1.85185187e-02 0. 1.85185187e-02 0. 0. 0. 0. 0. 0. 0. 0. 0. 0. 0.
      0. 0. 1.85185187e-02 0. 0. 0. 0. 0. 0. 1.85185187e-02 0. 0.
      3.70370373e-02 0. 0. 0. 0. 0. 0. 0. 1.85185187e-02 0. 0. 0. 0. 0.
      0. 0. 0. 0. 0. 0. 0. 0. 0. 0. 0. 0. 0. 1.85185187e-02 0. 0.
      3.70370373e-02 0. 0. 0. 0. 0. 0. 0. 0. 0. 0. 0. 0. 0. 0. 0. 0. 0.
      0. 0. 0. 0. 0. 1.85185187e-02 0. 0. 0. 0. 0. 0. 0. 0. 0. 0. 0. 0.
      0. 0. 0. 0. 0. 0. 0. 3.70370373e-02 0. 0. 0. 0. 0. 0. 0. 0. 0. 0.
      0. 0. 0. 0. 0. 0. 0. 0. 0. 0. 0. 0. 0. 1.85185187e-02
      1.85185187e-02 0. 0. 0. 0. 0. 0. 0. 0. 0. 0. 0. 0. 0. 0. 0. 0. 0.
      0. 0. 0. 0. 1.85185187e-02 0. 0. 0. 0. 0. 0. 0. 0. 0. 0. 0. 0. 0.
      1.85185187e-02 0. 0. 0. 0. 0. 0. 0. 1.85185187e-02 0.
      1.85185187e-02</_>
    <_>
      0. 0. 0. 0. 1.96078438e-02 0. 0. 0. 0. 0. 0. 0. 0. 3.92156877e-02
      0. 1.96078438e-02 0. 0. 0. 0. 0. 0. 0. 0. 0. 0. 0. 0. 0. 0. 0. 0.
      0. 0. 0. 0. 1.96078438e-02 0. 0. 0. 0. 0. 0. 0. 0. 0. 0. 0. 0. 0.
      0. 0. 0. 0. 0. 0. 0. 0. 0. 0. 0. 0. 0. 0. 0. 3.92156877e-02 0. 0.
      0. 0. 0. 0. 0. 0. 0. 0. 0. 0. 0. 0. 0. 0. 0. 0. 0. 0. 0. 0. 0. 0.
      0. 0. 0. 0. 1.96078438e-02 0. 0. 0. 0. 1.96078438e-02 0. 0. 0. 0.
      0. 1.96078438e-02 0. 0. 0. 0. 0. 0. 0. 0. 0. 0. 0. 0. 0. 0. 0. 0.
      0. 0. 0. 0. 0. 0. 1.96078438e-02 0. 0. 0. 0. 0. 0. 0. 0. 0. 0. 0.
      0. 0. 0. 0. 0. 0. 0. 0. 0. 0. 0. 0. 0. 0. 0. 1.96078438e-02 0. 0.
      0. 1.96078438e-02 0. 0. 0. 0. 0. 0. 0. 0. 0. 0. 0. 0. 0. 0. 0. 0.
      0. 0. 0. 0. 0. 0. 0. 0. 0. 0. 0. 0. 1.96078438e-02 0. 0. 0. 0. 0.
      0. 0. 0. 0. 0. 0. 0. 0. 0. 0. 0. 0. 0. 0. 0. 0. 0. 0. 0.
      3.92156877e-02 0. 1.96078438e-02 0. 0. 0. 0. 0. 0. 0. 0. 0. 0. 0.
      0. 0. 0. 0. 0. 0. 0. 1.96078438e-02 0. 0. 3.92156877e-02 0. 0. 0.
      0. 0. 0. 0. 0. 0. 0. 0. 0. 1.96078438e-02 0. 0. 0. 1.96078438e-02
      0. 0. 3.92156877e-02 0. 0. 0. 0. 0. 0. 0. 0. 1.96078438e-02 0. 0.
      1.96078438e-02 0. 0. 0. 0. 0. 0. 0. 0. 1.96078438e-02
      3.92156877e-02 0. 0. 0. 0. 0. 0. 0. 0. 0. 1.96078438e-02 0. 0. 0.
      0. 0. 0. 1.96078438e-02 0. 0. 0. 0. 1.96078438e-02 1.96078438e-02
      0. 0. 0. 0. 0. 0. 0. 0. 0. 0. 0. 0. 3.92156877e-02 0. 0. 0. 0. 0.
      0. 0. 0. 0. 0. 0. 0. 0. 0. 0. 0. 1.96078438e-02 0. 0. 0. 0. 0. 0.
      0. 0. 0. 0. 0. 0. 0. 0. 0. 0. 1.96078438e-02 0. 0. 0. 0. 0. 0. 0.
      0. 0. 0. 0. 0. 0. 0. 0. 0. 0. 0. 0. 0. 0. 0. 0. 0. 0. 0. 0. 0. 0.
      0. 0. 0. 0. 0. 0. 0. 0. 0. 0. 0. 0. 0. 0. 0. 0. 0. 1.17647059e-01
      0. 0. 0. 0. 0. 0. 0. 0. 0. 0. 0. 1.96078438e-02 0. 0. 0. 0. 0.
      1.96078438e-02 0. 0. 0. 1.96078438e-02 0. 0. 0. 0. 0. 0.
      1.96078438e-02 0. 0. 0. 0. 0. 0. 0. 0. 0. 0. 0. 0. 0. 0. 0. 0. 0.
      0. 0. 0. 0. 0. 0. 0. 0. 0. 0. 0. 0. 0. 0. 0. 0. 0. 0.
      1.96078438e-02 0. 1.96078438e-02 0. 0. 0. 0. 0. 0. 0. 0. 0. 0. 0.
      0. 0. 0. 0. 0. 0. 0. 0. 1.96078438e-02 0. 0. 0. 0. 0. 0. 0. 0. 0.
      0. 0. 0. 0. 0. 0. 0. 0. 1.96078438e-02 0. 0. 0. 0. 0. 0. 0. 0. 0.
      0.</_>
    <_>
      0. 2.77777780e-02 0. 0. 0. 0. 0. 0. 0. 0. 0. 0. 0. 0. 0. 0. 0. 0.
      0. 0. 0. 0. 0. 0. 0. 0. 0. 0. 0. 0. 0. 2.77777780e-02 0. 0. 0. 0.
      2.77777780e-02 0. 0. 0. 0. 0. 0. 0. 0. 2.77777780e-02 0. 0. 0.
      2.77777780e-02 0. 0. 0. 0. 0. 0. 0. 0. 0. 0. 0. 0. 0. 0. 0. 0. 0.
      0. 0. 2.77777780e-02 0. 5.55555560e-02 0. 0. 0. 0. 0. 0. 0. 0. 0.
      0. 0. 0. 0. 0. 2.77777780e-02 0. 0. 0. 0. 0. 0. 0. 0. 0. 0. 0. 0.
      0. 0. 0. 0. 0. 0. 0. 0. 2.77777780e-02 0. 0. 0. 0. 0. 0. 0. 0. 0.
      2.77777780e-02 0. 0. 0. 0. 0. 0. 0. 0. 0. 0. 0. 0. 0. 0. 0. 0. 0.
      0. 0. 0. 0. 0. 0. 0. 0. 0. 0. 0. 0. 2.77777780e-02 2.77777780e-02
      0. 0. 0. 0. 0. 0. 0. 0. 0. 0. 0. 0. 0. 0. 0. 0. 0. 0. 0. 0. 0. 0.
      0. 0. 0. 0. 0. 0. 0. 5.55555560e-02 0. 0. 0. 0. 0. 2.77777780e-02
      0. 0. 0. 2.77777780e-02 0. 0. 0. 0. 0. 0. 0. 0. 2.77777780e-02 0.
      0. 0. 0. 0. 0. 0. 0. 0. 0. 0. 0. 0. 0. 0. 0. 0. 0. 0. 0. 0. 0. 0.
      0. 0. 2.77777780e-02 0. 0. 0. 0. 0. 0. 0. 0. 0. 0. 0. 0. 0. 0. 0.
      0. 0. 0. 0. 0. 0. 0. 0. 0. 0. 0. 0. 0. 0. 0. 0. 0. 0. 0. 0. 0. 0.
      0. 0. 0. 0. 0. 0. 0. 0. 0. 0. 2.77777780e-02 2.77777780e-02 0. 0.
      0. 0. 0. 0. 0. 2.77777780e-02 0. 0. 0. 0. 0. 0. 0. 0. 0. 0. 0. 0.
      0. 0. 2.77777780e-02 0. 0. 0. 0. 0. 0. 0. 2.77777780e-02 0. 0. 0.
      0. 0. 0. 0. 0. 0. 0. 0. 2.77777780e-02 0. 0. 0. 0. 0. 0. 0. 0. 0.
      2.77777780e-02 0. 2.77777780e-02 0. 0. 0. 0. 0. 0. 0. 0. 0. 0. 0.
      0. 0. 0. 0. 2.77777780e-02 0. 0. 0. 0. 0. 0. 0. 0. 0. 0. 0. 0. 0.
      0. 0. 0. 0. 0. 0. 0. 0. 0. 0. 0. 0. 0. 0. 0. 0. 0. 2.77777780e-02
      0. 0. 0. 0. 0. 2.77777780e-02 0. 0. 0. 2.77777780e-02 0. 0. 0. 0.
      0. 0. 0. 0. 0. 0. 0. 0. 0. 0. 2.77777780e-02 0. 0. 0. 0. 0. 0. 0.
      2.77777780e-02 0. 0. 0. 0. 0. 0. 0. 0. 0. 0. 0. 0. 0. 0. 0. 0. 0.
      0. 0. 0. 0. 0. 2.77777780e-02 0. 0. 0. 0. 0. 0. 0. 0. 0. 0. 0. 0.
      0. 0. 2.77777780e-02 0. 0. 0. 0. 0. 0. 0. 0. 0. 0. 0. 0. 0. 0. 0.
      0. 0. 0. 0. 0. 2.77777780e-02 0. 0. 0. 0. 0. 0. 0. 0. 0. 0. 0. 0.
      0. 0. 0. 0. 0. 0. 0. 0. 0. 0. 0. 0. 0. 0. 0. 0. 0. 0. 0. 0. 0. 0.
      0. 0. 0. 0. 0. 0. 0. 0. 0. 0. 0.</_>
    <_>
      9.99999978e-03 0. 9.99999978e-03 0. 0. 0. 9.99999978e-03 0. 0. 0.
      0. 9.99999978e-03 9.99999978e-03 0. 0. 0. 0. 0. 0. 0. 0. 0. 0. 0.
      0. 0. 0. 0. 0. 0. 0. 0. 9.99999978e-03 0. 9.99999978e-03 0. 0. 0.
      0. 0. 0. 0. 0. 0. 0. 9.99999978e-03 0. 0. 0. 9.99999978e-03 0. 0.
      0. 0. 0. 0. 0. 9.99999978e-03 0. 9.99999978e-03 0. 0. 0.
      9.99999978e-03 0. 0. 9.99999978e-03 0. 9.99999978e-03 0. 0. 0. 0.
      0. 9.99999978e-03 9.99999978e-03 0. 9.99999978e-03 0. 0. 0. 0. 0.
      9.99999978e-03 9.99999978e-03 9.99999978e-03 0. 0. 0. 0. 0. 0. 0.
      0. 9.99999978e-03 0. 0. 0. 0. 0. 0. 0. 0. 0. 0. 0. 0. 0. 0.
      9.99999978e-03 0. 0. 0. 0. 0. 0. 0. 0. 0. 0. 0. 0. 0.
      9.99999978e-03 0. 0. 0. 0. 0. 0. 0. 0. 0. 9.99999978e-03
      9.99999978e-03 0. 2.99999993e-02 0. 0. 0. 0. 0. 9.99999978e-03
      9.99999978e-03 0. 0. 0. 0. 0. 0. 0. 0. 0. 0. 0. 0. 0. 0.
      9.99999978e-03 0. 0. 0. 0. 0. 0. 0. 0. 0. 0. 1.99999996e-02 0. 0.
      9.99999978e-03 0. 9.99999978e-03 0. 0. 9.99999978e-03 0. 0. 0. 0.
      0. 0. 9.99999978e-03 0. 9.99999978e-03 0. 0. 0. 0. 0. 0.
      9.99999978e-03 1.99999996e-02 0. 0. 0. 0. 0. 0. 0. 0. 0.
      9.99999978e-03 0. 0. 0. 0. 0. 1.99999996e-02 0. 0. 0. 0. 0.
      9.99999978e-03 0. 1.99999996e-02 0. 0. 0. 9.99999978e-03 0.
      9.99999978e-03 0. 0. 0. 0. 0. 0. 0. 0. 0. 0. 0. 0. 0.
      9.99999978e-03 0. 0. 9.99999978e-03 0. 0. 0. 0. 0. 0. 0. 0. 0. 0.
      0. 0. 0. 9.99999978e-03 9.99999978e-03 0. 0. 9.99999978e-03 0. 0.
      0. 0. 0. 0. 0. 0. 0. 0. 0. 0. 0. 9.99999978e-03 0. 0.
      9.99999978e-03 0. 0. 0. 0. 0. 1.99999996e-02 0. 0. 9.99999978e-03
      0. 0. 0. 0. 0. 0. 0. 0. 0. 9.99999978e-03 0. 9.99999978e-03 0.
      9.99999978e-03 0. 0. 0. 0. 0. 0. 0. 0. 0. 0. 9.99999978e-03 0. 0.
      0. 0. 0. 9.99999978e-03 0. 0. 0. 9.99999978e-03 0. 0. 0.
      9.99999978e-03 0. 9.99999978e-03 0. 1.99999996e-02 0. 0. 0.
      9.99999978e-03 0. 0. 0. 0. 0. 0. 0. 0. 0. 0. 0. 0. 9.99999978e-03
      0. 0. 0. 0. 0. 0. 0. 0. 0. 0. 0. 0. 0. 9.99999978e-03 0. 0. 0. 0.
      0. 0. 0. 0. 9.99999978e-03 9.99999978e-03 0. 0. 0. 9.99999978e-03
      0. 0. 0. 0. 0. 0. 0. 0. 9.99999978e-03 0. 0. 1.99999996e-02 0. 0.
      0. 0. 0. 0. 0. 0. 0. 9.99999978e-03 0. 0. 0. 0. 9.99999978e-03 0.
      0. 0. 0. 0. 0. 0. 0. 0. 0. 1.99999996e-02 0. 0. 0. 9.99999978e-03
      0. 0. 0. 0. 9.99999978e-03 0. 0. 0. 9.99999978e-03 9.99999978e-03
      0. 0. 0. 0. 9.99999978e-03 0. 0. 0. 9.99999978e-03 9.99999978e-03
      0. 0. 0. 0. 0. 0. 0. 9.99999978e-03 0. 9.99999978e-03 0. 0. 0.
      9.99999978e-03 0. 0. 0. 0. 0. 0. 0. 0. 0. 9.99999978e-03 0.
      9.99999978e-03 0. 0. 0. 0. 0. 0. 0. 0. 0. 0. 0. 0. 0. 0.
      9.99999978e-03 0. 0. 0. 0. 9.99999978e-03 9.99999978e-03 0. 0. 0.
      0. 0. 0. 0. 0. 0. 0. 0. 0. 0. 0. 0. 0. 0. 0. 0. 0. 0. 0. 0.
      9.99999978e-03 1.99999996e-02 0. 0. 0. 0.</_>
    <_>
      0. 0. 0. 0. 0. 0. 0. 0. 0. 0. 0. 0. 0. 0. 0. 0. 0. 0. 0. 0. 0. 0.
      0. 0. 0. 0. 0. 0. 0. 0. 0. 0. 0. 0. 0. 0. 0. 0. 0. 0. 0. 0. 0. 0.
      0. 0. 0. 0. 0. 0. 0. 0. 0. 0. 3.44827585e-02 0. 0. 0. 0. 0.
      3.44827585e-02 0. 0. 0. 0. 0. 0. 0. 0. 0. 0. 0. 0. 0. 0. 0. 0. 0.
      0. 0. 0. 0. 0. 0. 0. 3.44827585e-02 0. 0. 0. 0. 0. 0. 0. 0. 0. 0.
      0. 0. 0. 0. 0. 0. 0. 0. 0. 0. 0. 0. 0. 0. 0. 0. 0. 0. 0. 0. 0. 0.
      0. 3.44827585e-02 0. 0. 0. 0. 0. 0. 0. 0. 0. 0. 0. 0. 0. 0. 0. 0.
      0. 0. 0. 0. 0. 0. 0. 0. 0. 0. 0. 0. 3.44827585e-02 0. 0. 0. 0. 0.
      0. 0. 0. 0. 0. 0. 0. 3.44827585e-02 0. 0. 0. 0. 0. 0. 0.
      3.44827585e-02 0. 0. 0. 0. 0. 0. 0. 0. 0. 0. 0. 0. 0. 0. 0. 0. 0.
      3.44827585e-02 0. 0. 0. 0. 0. 0. 0. 0. 0. 0. 0. 0. 0. 0. 0. 0. 0.
      0. 0. 0. 0. 0. 0. 0. 0. 0. 0. 0. 0. 0. 0. 0. 0. 0. 0. 0. 0. 0. 0.
      0. 0. 0. 3.44827585e-02 0. 0. 0. 0. 0. 0. 0. 0. 0. 0. 0. 0. 0. 0.
      0. 0. 0. 0. 0. 0. 0. 0. 0. 0. 0. 0. 0. 0. 0. 0. 0. 0. 0. 0. 0. 0.
      0. 0. 0. 0. 3.44827585e-02 0. 0. 0. 0. 0. 0. 0. 0. 0. 0. 0. 0. 0.
      0. 0. 0. 0. 0. 0. 0. 0. 0. 0. 0. 0. 0. 0. 0. 0. 0. 2.06896558e-01
      0. 0. 0. 0. 0. 0. 3.44827585e-02 0. 0. 0. 0. 0. 0. 0. 0. 0. 0. 0.
      0. 0. 0. 0. 0. 0. 0. 0. 0. 0. 3.44827585e-02 0. 0. 0. 0. 0. 0. 0.
      0. 0. 0. 0. 0. 0. 0. 3.44827585e-02 0. 0. 3.44827585e-02 0. 0. 0.
      0. 0. 0. 0. 0. 0. 0. 0. 0. 0. 0. 0. 0. 0. 0. 0. 0. 0. 0. 0. 0. 0.
      0. 0. 0. 0. 0. 0. 0. 3.44827585e-02 6.89655170e-02 0. 0. 0. 0. 0.
      0. 0. 0. 0. 0. 0. 0. 1.37931034e-01 0. 0. 0. 0. 0. 0. 0. 0. 0. 0.
      0. 0. 0. 0. 0. 0. 0. 0. 0. 0. 0. 0. 0. 0. 0. 0. 0. 0. 0. 0. 0. 0.
      0. 0. 0. 0. 0. 0. 0. 0. 0. 0. 0. 0. 0. 0. 0. 0. 0. 0. 0. 0. 0. 0.
      0. 0. 0. 0. 0. 0. 0. 0. 0. 0. 0. 0. 0. 0. 0. 0. 0. 0. 0. 0. 0.
      3.44827585e-02 0. 0. 0. 0. 0. 0. 0. 0. 0. 0. 0. 0. 0. 0. 0. 0. 0.
      0. 0. 0. 3.44827585e-02 0. 0. 0. 0. 0. 0. 0. 0. 0. 0. 0. 0. 0. 0.
      0. 0. 0. 0.</_>
    <_>
      0. 0. 0. 0. 0. 0. 2.77777780e-02 0. 0. 0. 0. 0. 0. 0. 0. 0. 0. 0.
      5.55555560e-02 0. 0. 0. 0. 2.77777780e-02 0. 0. 0. 0. 0. 0. 0. 0.
      0. 0. 0. 0. 0. 0. 0. 0. 0. 0. 0. 0. 2.77777780e-02 0. 0. 0. 0. 0.
      0. 0. 0. 0. 0. 0. 0. 0. 0. 0. 0. 0. 0. 0. 0. 0. 0. 0. 0. 0. 0. 0.
      0. 0. 0. 0. 0. 0. 0. 0. 0. 0. 0. 0. 0. 0. 0. 0. 0. 2.77777780e-02
      2.77777780e-02 0. 0. 0. 0. 0. 0. 0. 0. 0. 0. 0. 0. 0. 0. 0. 0. 0.
      0. 0. 0. 5.55555560e-02 0. 0. 0. 0. 0. 0. 0. 0. 0. 0. 0. 0. 0. 0.
      2.77777780e-02 0. 0. 0. 0. 0. 0. 0. 0. 0. 0. 0. 0. 0. 0. 0. 0. 0.
      0. 0. 0. 0. 0. 0. 0. 0. 0. 0. 0. 0. 0. 0. 0. 0. 0. 0. 0. 0. 0. 0.
      0. 0. 0. 0. 0. 0. 0. 0. 0. 0. 0. 2.77777780e-02 0. 0. 0. 0. 0. 0.
      0. 0. 0. 0. 0. 0. 0. 0. 0. 0. 2.77777780e-02 0. 0. 0. 0. 0. 0. 0.
      0. 0. 0. 0. 0. 0. 0. 0. 0. 0. 0. 0. 0. 0. 0. 2.77777780e-02 0. 0.
      0. 0. 0. 0. 0. 0. 0. 0. 0. 0. 0. 0. 0. 0. 0. 0. 0. 0. 0. 0. 0. 0.
      0. 0. 0. 2.77777780e-02 0. 0. 0. 0. 0. 0. 0. 2.77777780e-02 0. 0.
      0. 0. 0. 0. 0. 2.77777780e-02 0. 0. 0. 0. 0. 0. 0. 0. 0. 0. 0.
      2.77777780e-02 0. 0. 0. 0. 0. 0. 0. 2.77777780e-02 0. 0. 0. 0. 0.
      0. 0. 0. 0. 0. 0. 0. 0. 0. 0. 0. 2.77777780e-02 0. 0. 0. 0. 0. 0.
      0. 0. 0. 0. 0. 0. 0. 0. 0. 0. 0. 0. 0. 0. 0. 2.77777780e-02 0. 0.
      0. 0. 0. 0. 0. 2.77777780e-02 0. 0. 2.77777780e-02 0. 0. 0. 0. 0.
      0. 0. 0. 0. 0. 0. 0. 0. 0. 0. 0. 0. 0. 0. 0. 0. 0. 0. 0. 0. 0. 0.
      0. 0. 0. 0. 0. 0. 0. 0. 0. 0. 0. 0. 0. 0. 0. 0. 0. 0. 0. 0. 0. 0.
      0. 0. 0. 0. 0. 0. 0. 0. 0. 0. 0. 0. 0. 0. 0. 0. 0. 0. 0. 0. 0. 0.
      0. 0. 0. 0. 0. 0. 0. 5.55555560e-02 0. 0. 0. 0. 0. 0. 0. 0. 0. 0.
      0. 0. 0. 0. 0. 0. 0. 0. 0. 0. 0. 0. 2.77777780e-02 0. 0. 0. 0. 0.
      0. 0. 0. 0. 0. 0. 0. 0. 0. 0. 0. 0. 0. 0. 0. 0. 2.77777780e-02 0.
      0. 0. 2.77777780e-02 0. 0. 0. 0. 0. 0. 2.77777780e-02
      2.77777780e-02 0. 0. 0. 2.77777780e-02 0. 0. 0. 2.77777780e-02
      2.77777780e-02 0. 0. 0. 0. 0. 0. 0. 0. 0. 0. 2.77777780e-02 0.
      2.77777780e-02 0. 0. 0. 0. 0. 0. 0. 0. 0. 0. 0. 0. 2.77777780e-02
      0. 0. 0. 2.77777780e-02 0. 0. 0. 0. 0.</_>
    <_>
      0. 0. 0. 0. 2.50000004e-02 0. 0. 0. 0. 0. 0. 0. 0. 2.50000004e-02
      0. 0. 0. 0. 0. 0. 2.50000004e-02 0. 0. 0. 0. 0. 0. 0. 0. 0. 0. 0.
      0. 0. 0. 2.50000004e-02 0. 2.50000004e-02 0. 2.50000004e-02 0. 0.
      0. 2.50000004e-02 0. 0. 0. 0. 0. 0. 0. 0. 0. 0. 0. 0. 0. 0.
      2.50000004e-02 0. 0. 0. 0. 0. 0. 0. 0. 2.50000004e-02 0. 0. 0. 0.
      0. 0. 0. 0. 0. 0. 0. 0. 0. 0. 0. 0. 0. 0. 0. 0. 0. 0. 0. 0. 0. 0.
      0. 0. 0. 0. 0. 0. 0. 0. 0. 0. 0. 0. 0. 0. 0. 0. 0. 0. 0. 0. 0. 0.
      0. 0. 0. 0. 0. 0. 0. 0. 0. 0. 0. 0. 0. 2.50000004e-02 0. 0. 0. 0.
      0. 0. 2.50000004e-02 0. 0. 0. 0. 0. 0. 0. 0. 0. 0. 0. 0. 0. 0. 0.
      0. 0. 0. 0. 0. 0. 0. 0. 0. 0. 0. 0. 0. 0. 0. 0. 0. 0. 0. 0. 0. 0.
      0. 0. 0. 0. 0. 0. 2.50000004e-02 2.50000004e-02 0. 0. 0. 0. 0. 0.
      2.50000004e-02 0. 0. 0. 0. 0. 0. 0. 0. 0. 0. 0. 0. 0. 0. 0. 0. 0.
      0. 2.50000004e-02 0. 0. 0. 0. 0. 0. 0. 0. 0. 0. 0. 2.50000004e-02
      0. 0. 2.50000004e-02 0. 0. 0. 0. 0. 0. 0. 0. 0. 0. 0. 0. 0. 0. 0.
      2.50000004e-02 0. 0. 0. 0. 0. 0. 0. 0. 0. 0. 0. 0. 0. 0. 0. 0. 0.
      0. 0. 0. 0. 0. 0. 0. 0. 0. 0. 0. 0. 0. 5.00000007e-02 0. 0.
      2.50000004e-02 0. 0. 0. 0. 2.50000004e-02 0. 0. 0. 0. 0. 0.
      2.50000004e-02 0. 0. 0. 0. 0. 0. 0. 0. 0. 0. 0. 0. 0. 0. 0. 0. 0.
      0. 0. 2.50000004e-02 0. 0. 0. 0. 0. 0. 0. 0. 0. 0. 0. 0. 0. 0. 0.
      0. 0. 0. 0. 0. 0. 0. 2.50000004e-02 0. 0. 0. 0. 0. 0. 0. 0. 0. 0.
      0. 2.50000004e-02 0. 0. 0. 0. 0. 0. 0. 0. 0. 0. 2.50000004e-02 0.
      0. 0. 0. 0. 0. 0. 0. 0. 0. 0. 0. 2.50000004e-02 0. 0. 0. 0. 0.
      2.50000004e-02 0. 0. 0. 0. 0. 0. 0. 0. 0. 0. 0. 0. 2.50000004e-02
      0. 0. 2.50000004e-02 0. 0. 0. 0. 0. 2.50000004e-02 0.
      2.50000004e-02 0. 0. 0. 2.50000004e-02 0. 0. 0. 0. 0. 0. 0. 0. 0.
      0. 0. 0. 0. 0. 0. 0. 0. 0. 0. 0. 0. 0. 0. 0. 0. 0. 0. 0. 0. 0. 0.
      0. 0. 0. 0. 0. 0. 2.50000004e-02 0. 0. 0. 0. 5.00000007e-02 0. 0.
      0. 0. 0. 0. 0. 0. 0. 0. 0. 2.50000004e-02 0. 0. 0. 0. 0.
      2.50000004e-02 0. 0. 0. 0. 0. 0. 0. 0. 0. 0. 0. 0. 0. 0. 0. 0. 0.
      0. 0. 2.50000004e-02 0. 0. 0. 0. 0. 0. 0. 0. 0. 0. 0. 0. 0. 0. 0.
      0. 0. 0. 0. 0. 0. 0. 0. 0. 0. 0. 0. 0. 0. 0. 0. 0. 0.</_>
    <_>
      0. 0. 0. 0. 0. 0. 1.92307699e-02 0. 0. 0. 0. 0. 0. 1.92307699e-02
      0. 0. 0. 0. 0. 0. 1.92307699e-02 0. 0. 0. 0. 1.92307699e-02
      1.92307699e-02 0. 0. 0. 0. 1.92307699e-02 0. 0. 0. 0. 0. 0. 0. 0.
      0. 0. 0. 1.92307699e-02 0. 0. 0. 0. 0. 0. 0. 0. 0. 0. 0. 0. 0. 0.
      0. 0. 1.92307699e-02 0. 0. 0. 0. 0. 0. 1.92307699e-02 0. 0. 0.
      1.92307699e-02 0. 0. 0. 0. 0. 0. 1.92307699e-02 0. 0. 0. 0. 0. 0.
      0. 0. 0. 0. 0. 0. 1.92307699e-02 0. 0. 0. 0. 0. 0. 0. 0. 0. 0. 0.
      0. 0. 0. 0. 0. 0. 0. 0. 1.92307699e-02 1.92307699e-02 0. 0. 0. 0.
      0. 0. 1.92307699e-02 0. 0. 1.92307699e-02 0. 0. 0. 0. 0. 0. 0. 0.
      0. 0. 0. 0. 0. 0. 0. 0. 0. 0. 0. 0. 0. 0. 0. 0. 0. 0. 0. 0. 0. 0.
      0. 0. 0. 0. 0. 0. 0. 0. 0. 0. 0. 0. 0. 0. 0. 0. 0. 0. 0. 0. 0. 0.
      0. 0. 0. 1.92307699e-02 0. 0. 0. 1.92307699e-02 0. 0. 0. 0. 0.
      3.84615399e-02 0. 0. 0. 0. 1.92307699e-02 0. 1.92307699e-02 0. 0.
      0. 0. 0. 0. 1.92307699e-02 1.92307699e-02 0. 0. 0. 0. 0. 0.
      1.92307699e-02 0. 0. 0. 0. 0. 0. 0. 0. 0. 0. 0. 0. 0. 0. 0. 0. 0.
      3.84615399e-02 0. 0. 0. 0. 0. 0. 0. 0. 0. 0. 0. 0. 0. 0. 0. 0. 0.
      0. 0. 0. 0. 0. 0. 1.92307699e-02 0. 0. 0. 0. 0. 0. 1.92307699e-02
      0. 0. 0. 0. 0. 0. 0. 0. 0. 0. 0. 1.92307699e-02 0. 0. 0. 0. 0. 0.
      0. 0. 0. 0. 0. 0. 0. 0. 0. 0. 0. 1.92307699e-02 0. 0. 0. 0. 0. 0.
      0. 0. 0. 0. 0. 0. 5.76923080e-02 0. 0. 0. 0. 0. 0. 0.
      1.92307699e-02 0. 0. 0. 0. 0. 0. 0. 0. 0. 0. 0. 0. 0. 0. 0. 0.
      1.92307699e-02 0. 0. 0. 0. 0. 0. 0. 0. 0. 0. 0. 0. 0. 0. 0. 0. 0.
      0. 1.92307699e-02 0. 0. 1.92307699e-02 0. 0. 0. 0. 0. 0. 0. 0. 0.
      0. 0. 0. 0. 0. 0. 0. 0. 0. 0. 0. 0. 0. 0. 0. 0. 0. 0. 0. 0. 0.
      1.92307699e-02 1.92307699e-02 0. 0. 0. 0. 0. 0. 0. 0. 0. 0. 0. 0.
      0. 0. 0. 0. 0. 0. 1.92307699e-02 0. 0. 0. 1.92307699e-02 0. 0. 0.
      0. 0. 0. 0. 0. 0. 0. 0. 0. 0. 1.92307699e-02 0. 0. 1.92307699e-02
      0. 0. 0. 0. 0. 1.92307699e-02 0. 0. 0. 0. 0. 0. 0. 0. 0. 0. 0. 0.
      0. 0. 0. 0. 1.92307699e-02 0. 0. 0. 1.92307699e-02 0.
      1.92307699e-02 0. 0. 0. 0. 0. 0. 0. 0. 0. 0. 0. 0. 1.92307699e-02
      0. 0. 0. 0. 0. 1.92307699e-02 0. 0. 0. 0. 0. 0. 0. 0. 0. 0. 0. 0.
      0. 0. 0. 0. 0. 0. 0. 0. 0. 1.92307699e-02 0. 0. 0. 0. 0. 0. 0.
      1.92307699e-02 0. 0. 0. 0. 0. 0. 0. 0. 0. 0. 0. 0.</_>
    <_>
      0. 1.36986300e-02 0. 0. 0. 0. 0. 0. 0. 0. 0. 0. 0. 0. 0. 0. 0. 0.
      0. 0. 0. 1.36986300e-02 0. 1.36986300e-02 0. 0. 0. 0. 0. 0. 0. 0.
      0. 0. 0. 0. 0. 0. 0. 0. 0. 1.91780820e-01 0. 0. 0. 0. 0. 0. 0. 0.
      0. 0. 0. 0. 0. 0. 0. 0. 0. 0. 0. 0. 0. 0. 0. 0. 0. 0. 0. 0. 0. 0.
      1.36986300e-02 0. 0. 0. 0. 0. 0. 0. 0. 0. 0. 0. 0. 0. 0. 0. 0. 0.
      1.36986300e-02 1.36986300e-02 0. 0. 0. 0. 0. 0. 0. 0. 0. 0. 0. 0.
      0. 0. 0. 0. 0. 0. 1.36986300e-02 0. 2.73972601e-02 0. 0. 0. 0. 0.
      0. 0. 0. 0. 0. 0. 0. 1.36986300e-02 1.36986300e-02 0.
      1.36986300e-02 0. 1.36986300e-02 1.36986300e-02 0. 0. 0. 0. 0. 0.
      0. 0. 0. 0. 0. 0. 0. 0. 0. 1.36986300e-02 0. 0. 0. 0. 0. 0. 0. 0.
      0. 0. 0. 1.36986300e-02 0. 0. 0. 0. 0. 0. 0. 0. 0. 0. 0. 0. 0. 0.
      0. 0. 1.36986300e-02 0. 0. 0. 0. 0. 0. 0. 0. 2.73972601e-02 0. 0.
      0. 0. 0. 0. 2.73972601e-02 0. 0. 0. 0. 0. 1.36986300e-02 0. 0. 0.
      0. 0. 0. 0. 1.36986300e-02 0. 0. 0. 0. 5.47945201e-02 0. 0. 0. 0.
      0. 0. 0. 0. 0. 0. 0. 0. 0. 0. 0. 0. 0. 0. 0. 0. 0. 0. 0. 0. 0. 0.
      0. 0. 0. 0. 0. 0. 0. 0. 0. 0. 0. 0. 0. 0. 0. 0. 0. 0. 0. 0. 0. 0.
      0. 0. 0. 0. 0. 0. 0. 0. 0. 0. 0. 0. 0. 0. 0. 0. 0. 0. 0. 0. 0. 0.
      0. 0. 0. 0. 0. 0. 0. 0. 0. 0. 0. 0. 0. 0. 0. 0. 0. 0. 0. 0. 0. 0.
      0. 0. 0. 0. 0. 0. 0. 0. 0. 0. 0. 0. 0. 0. 0. 0. 0. 0. 0. 0. 0. 0.
      0. 0. 0. 0. 0. 0. 0. 0. 0. 0. 0. 0. 0. 0. 0. 1.36986300e-02 0. 0.
      0. 0. 0. 0. 0. 0. 0. 0. 0. 0. 0. 0. 0. 0. 0. 0. 2.73972601e-02
      2.73972601e-02 0. 0. 0. 1.36986300e-02 0. 0. 0. 0. 0. 0.
      1.36986300e-02 2.73972601e-02 0. 0. 0. 0. 1.36986300e-02 0. 0.
      1.36986300e-02 0. 5.47945201e-02 0. 0. 0. 1.36986300e-02 0. 0. 0.
      1.36986300e-02 0. 0. 1.36986300e-02 1.36986300e-02 2.73972601e-02
      0. 0. 0. 0. 0. 0. 0. 0. 0. 0. 0. 0. 0. 0. 0. 0. 0. 0. 0. 0. 0. 0.
      1.36986300e-02 0. 0. 0. 0. 0. 0. 0. 0. 1.36986300e-02 0. 0. 0. 0.
      0. 0. 1.36986300e-02 6.84931502e-02 0. 0. 0. 0. 0. 0. 0. 0. 0. 0.
      0. 0. 0. 0. 0. 0. 0. 0. 0. 0. 0. 0. 1.36986300e-02 0. 0. 0. 0. 0.
      0. 0. 0. 0. 0. 0. 0. 0. 0. 0. 0. 0. 0. 0. 0. 0. 0. 0. 0.
      1.36986300e-02 0. 0. 0. 0. 0. 0. 0. 0. 0. 0. 0. 0. 1.36986300e-02
      0. 0. 0. 0. 0. 0. 0. 0. 0. 0. 0. 0. 0. 0.</_>
    <_>
      0. 0. 0. 1.58730168e-02 0. 0. 0. 0. 1.58730168e-02 0. 0. 0. 0. 0.
      0. 1.58730168e-02 0. 0. 0. 0. 0. 0. 0. 0. 0. 0. 0. 0. 0. 0.
      1.58730168e-02 0. 0. 0. 0. 1.58730168e-02 0. 0. 0. 0. 0. 0.
      1.58730168e-02 0. 0. 0. 0. 0. 0. 0. 0. 0. 0. 0. 1.58730168e-02 0.
      0. 0. 0. 0. 0. 0. 0. 1.58730168e-02 0. 0. 0. 0. 3.17460336e-02 0.
      0. 0. 0. 0. 0. 0. 0. 0. 0. 0. 0. 0. 0. 0. 1.58730168e-02 0. 0. 0.
      0. 0. 0. 0. 0. 0. 0. 0. 0. 0. 0. 0. 0. 0. 0. 0. 0. 0. 0. 0. 0.
      1.58730168e-02 0. 1.58730168e-02 0. 0. 0. 0. 0. 0. 0. 0. 0. 0.
      1.58730168e-02 0. 0. 0. 3.17460336e-02 0. 0. 0. 0. 0. 0. 0.
      1.58730168e-02 0. 0. 0. 0. 0. 0. 0. 0. 0. 0. 0. 0. 0.
      1.58730168e-02 0. 0. 0. 0. 0. 0. 0. 0. 4.76190485e-02 0. 0. 0. 0.
      0. 0. 0. 0. 0. 0. 1.58730168e-02 0. 0. 1.58730168e-02 0. 0. 0. 0.
      0. 0. 0. 0. 0. 0. 0. 0. 0. 0. 0. 0. 0. 0. 1.58730168e-02 0. 0. 0.
      0. 0. 0. 1.58730168e-02 1.58730168e-02 0. 0. 0. 0. 0. 0. 0. 0. 0.
      0. 0. 0. 0. 0. 0. 0. 0. 0. 0. 0. 0. 0. 1.58730168e-02 0. 0. 0. 0.
      0. 0. 0. 1.58730168e-02 0. 0. 0. 0. 0. 0. 0. 0. 0. 0. 0. 0. 0.
      3.17460336e-02 0. 0. 0. 0. 0. 0. 0. 0. 0. 0. 0. 0. 0. 0. 0. 0. 0.
      0. 0. 0. 0. 1.58730168e-02 0. 0. 0. 0. 0. 0. 0. 0. 0. 0. 0.
      1.58730168e-02 0. 0. 0. 1.58730168e-02 0. 0. 0. 0. 0. 0. 0. 0. 0.
      0. 0. 0. 0. 0. 1.58730168e-02 0. 0. 0. 0. 0. 0. 0. 0. 0. 0. 0. 0.
      0. 0. 3.17460336e-02 0. 0. 0. 0. 0. 0. 0. 1.58730168e-02
      1.58730168e-02 0. 0. 0. 0. 0. 0. 0. 1.58730168e-02 1.58730168e-02
      0. 0. 0. 0. 0. 0. 0. 0. 0. 0. 0. 0. 1.58730168e-02 0. 0. 0. 0. 0.
      1.58730168e-02 0. 0. 0. 0. 0. 0. 0. 0. 0. 0. 0. 0. 0. 0. 0. 0. 0.
      1.58730168e-02 0. 0. 0. 0. 1.58730168e-02 0. 0. 0. 0. 0. 0. 0. 0.
      0. 0. 0. 0. 0. 0. 0. 0. 1.58730168e-02 0. 0. 0. 0. 0. 0. 0. 0. 0.
      0. 0. 0. 0. 0. 0. 0. 1.58730168e-02 1.58730168e-02 0. 0. 0.
      1.58730168e-02 0. 0. 0. 0. 1.58730168e-02 0. 0. 0. 3.17460336e-02
      0. 0. 0. 0. 0. 0. 1.58730168e-02 0. 0. 0. 1.58730168e-02 0.
      1.58730168e-02 0. 0. 0. 0. 0. 1.58730168e-02 0. 0. 0. 0. 0. 0. 0.
      0. 0. 1.58730168e-02 0. 0. 0. 0. 0. 0. 0. 0. 0. 3.17460336e-02 0.
      1.58730168e-02 0. 0. 0. 0. 0. 0. 0. 1.58730168e-02 0. 0. 0. 0. 0.
      0. 0. 0. 0. 0. 0. 0. 0. 0. 0. 0. 0. 0. 0. 0. 0. 1.58730168e-02 0.
      0. 0. 0. 0. 0. 0. 0. 0. 0. 1.58730168e-02 0. 0. 0. 0. 0. 0. 0. 0.
      1.58730168e-02 0.</_>
    <_>
      0. 0. 9.99999978e-03 0. 0. 0. 0. 0. 0. 0. 9.99999978e-03 0.
      9.99999978e-03 0. 0. 0. 0. 0. 1.99999996e-02 0. 0. 0. 0. 0. 0. 0.
      9.99999978e-03 0. 0. 0. 0. 0. 9.99999978e-03 0. 0. 0. 0. 0. 0. 0.
      0. 0. 0. 0. 0. 9.99999978e-03 0. 0. 0. 0. 9.99999978e-03
      9.99999978e-03 0. 9.99999978e-03 9.99999978e-03 0. 9.99999978e-03
      0. 9.99999978e-03 9.99999978e-03 0. 0. 0. 1.99999996e-02 0. 0. 0.
      0. 0. 0. 0. 0. 0. 0. 0. 0. 0. 0. 0. 0. 0. 9.99999978e-03
      9.99999978e-03 0. 0. 0. 0. 0. 0. 1.99999996e-02 0. 0.
      9.99999978e-03 0. 0. 0. 0. 0. 0. 0. 9.99999978e-03 0. 0. 0.
      9.99999978e-03 0. 0. 0. 0. 0. 0. 9.99999978e-03 0. 0. 0. 0. 0.
      9.99999978e-03 0. 0. 0. 0. 0. 9.99999978e-03 0. 9.99999978e-03 0.
      0. 0. 0. 0. 0. 9.99999978e-03 9.99999978e-03 0. 0. 0.
      9.99999978e-03 0. 0. 0. 0. 0. 0. 0. 0. 0. 0. 0. 0. 0. 0. 0. 0. 0.
      0. 0. 0. 0. 0. 0. 9.99999978e-03 9.99999978e-03 0. 0. 0.
      9.99999978e-03 0. 0. 0. 0. 0. 0. 9.99999978e-03 0. 0. 0. 0. 0. 0.
      0. 0. 9.99999978e-03 0. 0. 0. 0. 0. 0. 0. 9.99999978e-03 0. 0. 0.
      0. 0. 9.99999978e-03 0. 0. 0. 0. 0. 0. 0. 0. 0. 0. 0. 0. 0. 0. 0.
      0. 0. 9.99999978e-03 9.99999978e-03 9.99999978e-03 0. 0. 0. 0. 0.
      9.99999978e-03 9.99999978e-03 0. 9.99999978e-03 9.99999978e-03 0.
      0. 0. 0. 9.99999978e-03 0. 0. 9.99999978e-03 0. 9.99999978e-03 0.
      0. 0. 0. 0. 0. 0. 0. 9.99999978e-03 0. 0. 0. 0. 0. 9.99999978e-03
      0. 0. 0. 0. 0. 0. 0. 0. 0. 0. 0. 9.99999978e-03 0. 0. 0. 0. 0.
      9.99999978e-03 0. 9.99999978e-03 0. 0. 0. 0. 9.99999978e-03 0. 0.
      0. 0. 0. 0. 0. 0. 9.99999978e-03 0. 0. 0. 0. 0. 9.99999978e-03 0.
      0. 0. 0. 9.99999978e-03 0. 0. 0. 0. 0. 0. 0. 0. 0. 0.
      9.99999978e-03 0. 9.99999978e-03 0. 9.99999978e-03 0. 0. 0. 0. 0.
      0. 0. 0. 9.99999978e-03 0. 1.99999996e-02 9.99999978e-03 0. 0. 0.
      0. 0. 0. 0. 0. 0. 0. 0. 0. 0. 0. 0. 0. 0. 0. 9.99999978e-03 0.
      9.99999978e-03 0. 0. 0. 0. 0. 0. 0. 1.99999996e-02 0. 0. 0. 0. 0.
      0. 9.99999978e-03 0. 0. 0. 0. 0. 0. 0. 0. 0. 0. 9.99999978e-03 0.
      9.99999978e-03 9.99999978e-03 0. 0. 0. 0. 9.99999978e-03 0. 0. 0.
      0. 9.99999978e-03 0. 9.99999978e-03 9.99999978e-03 0. 0. 0. 0.
      9.99999978e-03 9.99999978e-03 9.99999978e-03 0. 0. 0. 0. 0. 0. 0.
      1.99999996e-02 1.99999996e-02 0. 9.99999978e-03 0. 0. 0.
      9.99999978e-03 0. 0. 0. 0. 0. 0. 0. 0. 0. 0. 0. 0. 0. 0. 0. 0. 0.
      0. 9.99999978e-03 0. 0. 0. 9.99999978e-03 0. 0. 9.99999978e-03
      1.99999996e-02 0. 0. 9.99999978e-03 9.99999978e-03 0. 0.
      9.99999978e-03 0. 0. 0. 0. 0. 0. 0. 0. 0. 0. 9.99999978e-03 0. 0.
      0. 0. 0. 0. 0. 0. 0. 0. 0. 0. 0. 0. 0. 0. 0. 1.99999996e-02 0. 0.
      0. 0. 0. 0. 0. 9.99999978e-03 0. 0. 0. 0. 0. 0. 0. 0. 0. 0. 0. 0.
      0. 0. 0. 0. 9.99999978e-03 9.99999978e-03 0. 0. 0. 9.99999978e-03
      0. 0. 0. 0. 0. 0. 0. 0. 0. 0.</_>
    <_>
      4.54545468e-02 0. 0. 0. 0. 0. 0. 0. 0. 0. 0. 0. 4.54545468e-02 0.
      0. 0. 0. 0. 0. 0. 0. 0. 0. 0. 0. 0. 0. 0. 0. 0. 0. 0. 0. 0. 0. 0.
      0. 0. 0. 0. 0. 0. 0. 4.54545468e-02 0. 0. 0. 0. 0. 0. 0. 0. 0. 0.
      0. 0. 0. 0. 0. 0. 0. 0. 0. 0. 0. 0. 0. 0. 0. 0. 0. 0. 0.
      4.54545468e-02 4.54545468e-02 0. 0. 0. 0. 0. 0. 0. 0. 0. 0. 0. 0.
      0. 0. 0. 0. 0. 0. 0. 0. 0. 4.54545468e-02 0. 0. 0. 0. 0.
      4.54545468e-02 0. 0. 0. 0. 0. 0. 0. 0. 0. 0. 0. 0. 0. 0. 0. 0. 0.
      0. 0. 0. 0. 0. 0. 0. 0. 0. 0. 0. 4.54545468e-02 0. 0. 0. 0. 0. 0.
      0. 0. 0. 0. 0. 0. 0. 0. 0. 4.54545468e-02 0. 0. 0. 0. 0. 0. 0. 0.
      0. 0. 0. 0. 0. 0. 0. 0. 0. 0. 0. 0. 0. 0. 0. 0. 0. 0. 0. 0. 0.
      4.54545468e-02 0. 0. 0. 0. 0. 0. 0. 0. 0. 0. 0. 0. 0. 0. 0. 0. 0.
      0. 0. 0. 0. 0. 0. 0. 0. 0. 0. 0. 4.54545468e-02 0. 0. 0. 0. 0. 0.
      0. 0. 0. 0. 0. 0. 0. 0. 0. 0. 0. 0. 0. 0. 0. 0. 0. 0. 0. 0. 0. 0.
      0. 0. 0. 0. 0. 0. 0. 0. 0. 0. 0. 4.54545468e-02 0. 0. 0. 0. 0. 0.
      0. 0. 0. 0. 0. 0. 0. 0. 0. 0. 0. 0. 0. 0. 0. 0. 0. 0. 0. 0. 0. 0.
      0. 0. 0. 0. 0. 0. 0. 0. 0. 0. 0. 0. 0. 0. 0. 0. 0. 0. 0. 0. 0. 0.
      0. 0. 0. 0. 0. 0. 0. 0. 0. 0. 0. 0. 0. 0. 0. 0. 0. 0. 0. 0. 0. 0.
      0. 0. 0. 0. 0. 0. 0. 0. 4.54545468e-02 0. 0. 0. 0. 0. 0. 0. 0. 0.
      0. 0. 0. 0. 0. 0. 0. 0. 0. 0. 0. 0. 0. 0. 0. 0. 0. 0. 0. 0. 0. 0.
      0. 0. 0. 0. 0. 0. 0. 0. 0. 0. 0. 0. 0. 0. 0. 0. 0. 0. 0. 0. 0. 0.
      0. 0. 0. 0. 0. 0. 0. 0. 0. 0. 0. 0. 0. 0. 0. 0. 0. 0. 0. 0. 0. 0.
      0. 0. 0. 0. 0. 0. 0. 0. 0. 0. 0. 0. 0. 0. 0. 0. 0. 4.54545468e-02
      0. 0. 0. 0. 4.54545468e-02 0. 0. 0. 4.54545468e-02 4.54545468e-02
      0. 4.54545468e-02 0. 0. 0. 0. 0. 0. 0. 0. 0. 0. 0. 0. 0.
      4.54545468e-02 0. 0. 0. 0. 0. 0. 0. 0. 0. 0. 0. 0. 0. 0. 0. 0. 0.
      0. 0. 0. 0. 0. 0. 0. 0. 0. 0. 0. 0. 0. 4.54545468e-02 0. 0. 0. 0.
      0. 4.54545468e-02 0. 0. 0. 0. 0. 0. 0. 0. 0. 0. 0. 0. 0. 0. 0. 0.
      0. 0. 0. 0. 4.54545468e-02 0. 0. 0. 0. 0. 0. 0.</_>
    <_>
      0. 0. 0. 0. 0. 0. 0. 0. 0. 0. 7.69230798e-02 0. 0. 0. 0. 0. 0. 0.
      0. 0. 0. 0. 0. 0. 0. 0. 0. 0. 0. 0. 0. 0. 0. 0. 0. 0. 0. 0. 0. 0.
      0. 0. 0. 0. 0. 0. 0. 0. 0. 0. 0. 0. 0. 0. 0. 0. 0. 0. 0. 0. 0. 0.
      0. 0. 0. 0. 0. 0. 0. 0. 0. 0. 0. 0. 0. 0. 0. 0. 0. 0. 0. 0. 0. 0.
      0. 0. 0. 0. 0. 0. 0. 0. 0. 0. 0. 0. 0. 0. 0. 0. 0. 7.69230798e-02
      0. 0. 0. 0. 0. 0. 0. 0. 0. 0. 0. 0. 0. 0. 0. 0. 0. 0. 0. 0. 0. 0.
      0. 0. 0. 0. 0. 0. 0. 0. 0. 0. 0. 0. 0. 0. 0. 0. 0. 0. 0. 0. 0. 0.
      0. 0. 7.69230798e-02 0. 0. 0. 0. 0. 0. 0. 0. 0. 0. 0. 0. 0. 0. 0.
      0. 0. 0. 0. 0. 0. 0. 0. 0. 0. 0. 0. 0. 0. 0. 0. 0. 0. 0. 0. 0. 0.
      7.69230798e-02 0. 0. 0. 0. 0. 0. 0. 0. 0. 0. 0. 0. 0. 0. 0. 0. 0.
      0. 1.53846160e-01 0. 0. 0. 0. 0. 0. 0. 0. 0. 0. 0. 0. 0. 0. 0. 0.
      0. 0. 0. 0. 0. 0. 0. 0. 0. 0. 0. 0. 0. 0. 0. 0. 0. 0. 0. 0. 0. 0.
      0. 0. 0. 0. 0. 0. 0. 0. 0. 0. 0. 0. 0. 0. 0. 0. 0. 0. 0. 0. 0. 0.
      0. 0. 0. 0. 0. 0. 0. 0. 0. 0. 0. 0. 0. 0. 0. 0. 0. 0. 0. 0. 0. 0.
      0. 0. 0. 0. 0. 0. 0. 0. 0. 0. 0. 0. 0. 0. 0. 0. 0. 0. 0. 0. 0. 0.
      0. 0. 0. 0. 0. 0. 0. 0. 0. 0. 0. 0. 0. 0. 0. 0. 0. 0. 0. 0. 0. 0.
      0. 0. 0. 0. 0. 0. 0. 0. 0. 0. 0. 0. 0. 0. 0. 0. 0. 0. 0. 0.
      7.69230798e-02 0. 0. 0. 0. 0. 0. 0. 0. 0. 0. 0. 0. 0. 0. 0. 0. 0.
      0. 0. 0. 0. 0. 0. 0. 0. 0. 0. 0. 0. 0. 0. 0. 0. 0. 0. 0. 0. 0. 0.
      0. 0. 0. 0. 0. 0. 0. 0. 0. 0. 0. 0. 0. 0. 0. 0. 0. 0. 0. 0. 0. 0.
      0. 0. 0. 0. 0. 0. 0. 0. 1.53846160e-01 0. 0. 0. 0. 0. 0. 0. 0. 0.
      0. 0. 0. 0. 7.69230798e-02 0. 0. 7.69230798e-02 0. 0. 0. 0. 0. 0.
      0. 0. 0. 0. 0. 0. 0. 0. 0. 0. 0. 0. 0. 0. 0. 0. 0. 0. 0. 0. 0. 0.
      0. 0. 0. 0. 0. 0. 0. 0. 0. 7.69230798e-02 0. 0. 0. 0. 0. 0. 0. 0.
      0. 0. 0. 0. 0. 0. 7.69230798e-02 0. 0. 0. 0. 0. 0. 0. 0. 0. 0. 0.
      0. 0. 0. 0. 0. 0. 0. 0.</_>
    <_>
      0. 0. 0. 0. 0. 0. 0. 0. 0. 0. 0. 0. 0. 0. 0. 0. 0. 0. 0. 0. 0. 0.
      0. 0. 0. 0. 0. 0. 0. 0. 0. 0. 0. 0. 0. 0. 0. 0. 0. 0. 0.
      1.15384616e-01 0. 0. 0. 0. 0. 0. 0. 0. 0. 0. 0. 0. 0. 0. 0. 0. 0.
      0. 0. 0. 0. 0. 0. 0. 7.69230798e-02 0. 0. 0. 0. 0. 0. 0. 0. 0. 0.
      0. 0. 0. 0. 0. 0. 0. 0. 0. 0. 0. 0. 3.84615399e-02 0. 0. 0. 0. 0.
      0. 0. 0. 0. 0. 0. 0. 0. 0. 0. 0. 0. 0. 0. 0. 0. 0. 0. 0. 0. 0. 0.
      0. 0. 0. 0. 0. 0. 0. 0. 0. 0. 0. 0. 0. 0. 0. 0. 0. 0.
      3.84615399e-02 0. 0. 0. 0. 0. 0. 0. 0. 0. 0. 0. 0. 0. 0. 0. 0. 0.
      0. 0. 0. 0. 0. 0. 0. 0. 0. 0. 0. 0. 0. 0. 0. 0. 0. 0. 0. 0. 0. 0.
      0. 0. 0. 0. 0. 0. 0. 0. 0. 0. 0. 0. 0. 0. 0. 0. 0. 0. 0. 0. 0. 0.
      0. 0. 0. 0. 0. 0. 3.84615399e-02 0. 3.84615399e-02 1.15384616e-01
      0. 0. 0. 0. 0. 0. 0. 0. 0. 0. 0. 0. 0. 0. 0. 0. 0. 3.84615399e-02
      0. 0. 0. 3.84615399e-02 0. 0. 0. 0. 0. 0. 0. 0. 3.84615399e-02 0.
      0. 0. 0. 0. 0. 0. 0. 0. 3.84615399e-02 0. 0. 0. 0. 0. 0. 0. 0. 0.
      0. 0. 0. 0. 0. 0. 0. 0. 3.84615399e-02 0. 0. 0. 0. 0. 0. 0. 0. 0.
      0. 0. 0. 0. 0. 0. 0. 0. 0. 0. 0. 0. 0. 0. 0. 0. 0. 0. 0. 0.
      3.84615399e-02 0. 0. 0. 0. 0. 0. 0. 0. 0. 0. 0. 0. 0. 0. 0. 0. 0.
      0. 0. 3.84615399e-02 0. 0. 0. 0. 0. 0. 0. 0. 0. 0. 0. 0. 0. 0. 0.
      0. 0. 0. 0. 0. 0. 0. 0. 0. 0. 0. 0. 0. 0. 0. 0. 0. 0. 0. 0. 0. 0.
      0. 0. 0. 3.84615399e-02 0. 0. 0. 3.84615399e-02 3.84615399e-02 0.
      0. 0. 0. 0. 0. 0. 0. 0. 0. 0. 0. 0. 0. 0. 0. 0. 0. 0. 0. 0. 0. 0.
      0. 0. 0. 0. 0. 0. 0. 0. 0. 0. 0. 0. 0. 0. 0. 0. 0. 0. 0. 0. 0. 0.
      0. 0. 0. 0. 0. 0. 0. 0. 0. 0. 0. 0. 0. 3.84615399e-02 0. 0. 0. 0.
      0. 0. 0. 0. 0. 0. 0. 0. 0. 0. 0. 3.84615399e-02 0. 0. 0. 0. 0. 0.
      0. 0. 0. 0. 0. 0. 0. 0. 0. 3.84615399e-02 0. 0. 0. 0. 0. 0. 0. 0.
      0. 0. 0. 0. 0. 0. 0. 0. 0. 0. 0. 0. 0. 0. 0. 0. 0. 0. 0. 0. 0. 0.
      3.84615399e-02 0. 0. 0. 0. 0. 0. 0. 0. 0. 0. 0. 0. 0. 0. 0. 0. 0.
      0. 0. 0. 0. 0. 0. 0. 0. 0. 0. 0.</_>
    <_>
      0. 0. 0. 0. 0. 0. 9.99999978e-03 0. 0. 9.99999978e-03
      9.99999978e-03 0. 0. 0. 0. 0. 0. 0. 0. 0. 0. 9.99999978e-03 0. 0.
      0. 0. 0. 0. 0. 0. 9.99999978e-03 0. 0. 0. 0. 0. 0. 0. 0. 0. 0.
      3.99999991e-02 0. 9.99999978e-03 0. 0. 0. 9.99999978e-03 0. 0. 0.
      0. 0. 9.99999978e-03 0. 0. 0. 0. 0. 0. 0. 0. 0. 0. 0. 0. 0. 0. 0.
      0. 0. 0. 0. 0. 0. 0. 0. 0. 0. 0. 0. 0. 0. 0. 0. 9.99999978e-03 0.
      0. 0. 0. 0. 0. 0. 9.99999978e-03 1.99999996e-02 0. 0. 0. 0. 0. 0.
      0. 0. 0. 0. 0. 0. 0. 9.99999978e-03 0. 9.99999978e-03 0. 0. 0. 0.
      0. 0. 0. 0. 0. 9.99999978e-03 0. 2.99999993e-02 0. 0. 0. 0. 0. 0.
      0. 0. 0. 9.99999978e-03 0. 0. 0. 0. 0. 0. 0. 0. 0. 0. 0.
      9.99999978e-03 0. 0. 0. 0. 0. 0. 0. 0. 9.99999978e-03 0. 0. 0. 0.
      0. 0. 0. 0. 0. 0. 0. 9.99999978e-03 0. 0. 0. 0. 9.99999978e-03 0.
      0. 0. 9.99999978e-03 9.99999978e-03 0. 0. 0. 0. 0. 0. 0. 0. 0.
      1.99999996e-02 0. 0. 0. 0. 0. 0. 0. 0. 0. 9.99999978e-03 0. 0. 0.
      0. 0. 0. 0. 0. 9.99999978e-03 1.99999996e-02 0. 0. 9.99999978e-03
      9.99999978e-03 9.99999978e-03 0. 0. 0. 0. 0. 0. 0. 0. 0. 0. 0.
      9.99999978e-03 0. 0. 0. 0. 0. 0. 0. 0. 0. 0. 0. 0. 9.99999978e-03
      9.99999978e-03 0. 9.99999978e-03 0. 0. 0. 0. 1.99999996e-02 0. 0.
      0. 2.99999993e-02 0. 9.99999978e-03 0. 9.99999978e-03 0. 0.
      9.99999978e-03 9.99999978e-03 0. 0. 0. 9.99999978e-03 0.
      9.99999978e-03 0. 9.99999978e-03 0. 0. 9.99999978e-03
      9.99999978e-03 0. 0. 0. 1.99999996e-02 0. 0. 0. 0. 0. 0. 0. 0. 0.
      0. 0. 0. 0. 0. 0. 0. 0. 0. 0. 0. 0. 0. 0. 0. 9.99999978e-03 0. 0.
      0. 0. 0. 0. 0. 0. 0. 0. 9.99999978e-03 0. 0. 1.99999996e-02 0. 0.
      0. 0. 0. 0. 9.99999978e-03 0. 0. 1.99999996e-02 0. 9.99999978e-03
      9.99999978e-03 9.99999978e-03 0. 0. 0. 0. 0. 0. 9.99999978e-03 0.
      0. 0. 0. 0. 0. 0. 0. 0. 0. 9.99999978e-03 0. 0. 0. 0. 0. 0. 0. 0.
      0. 9.99999978e-03 0. 0. 9.99999978e-03 0. 0. 0. 9.99999978e-03 0.
      0. 0. 0. 0. 0. 0. 0. 0. 0. 2.99999993e-02 0. 9.99999978e-03 0. 0.
      0. 9.99999978e-03 0. 0. 0. 0. 0. 0. 0. 9.99999978e-03 0. 0. 0. 0.
      0. 0. 0. 0. 0. 0. 9.99999978e-03 9.99999978e-03 0. 0. 0. 0.
      9.99999978e-03 0. 0. 0. 0. 0. 0. 0. 9.99999978e-03 0. 0. 0. 0. 0.
      0. 9.99999978e-03 0. 0. 0. 0. 0. 0. 0. 0. 0. 0. 0. 0. 0. 0. 0.
      9.99999978e-03 0. 0. 9.99999978e-03 9.99999978e-03 0.
      9.99999978e-03 0. 9.99999978e-03 0. 0. 0. 9.99999978e-03 0. 0.
      9.99999978e-03 0. 0. 0. 0. 0. 0. 0. 0. 0. 0. 0. 0. 0. 0. 0. 0. 0.
      0. 0. 9.99999978e-03 0. 0. 0. 0. 0. 0. 9.99999978e-03 0.
      9.99999978e-03 0. 0. 0. 0. 0. 0. 0. 1.99999996e-02 0. 0.
      9.99999978e-03 0. 0. 9.99999978e-03 0. 0. 9.99999978e-03 0. 0. 0.
      0. 0. 0. 0. 0. 0. 9.99999978e-03 0. 0. 0. 0. 0. 0. 0. 0.</_>
    <_>
      0. 0. 0. 0. 2.32558139e-02 0. 0. 0. 0. 0. 0. 0. 2.32558139e-02 0.
      0. 0. 0. 0. 0. 0. 0. 0. 0. 0. 0. 0. 2.32558139e-02 0. 0. 0. 0. 0.
      0. 0. 0. 0. 0. 0. 0. 0. 0. 2.32558139e-02 0. 0. 0. 0. 0. 0. 0. 0.
      0. 0. 0. 0. 0. 0. 0. 0. 0. 0. 0. 2.32558139e-02 0. 0. 0. 0. 0. 0.
      0. 2.32558139e-02 0. 0. 2.32558139e-02 0. 0. 0. 0. 0. 0. 0. 0. 0.
      0. 0. 0. 0. 1.16279073e-01 0. 0. 0. 0. 0. 0. 0. 0. 0. 0. 0. 0. 0.
      0. 0. 0. 2.32558139e-02 2.32558139e-02 0. 0. 0. 2.32558139e-02 0.
      0. 0. 0. 0. 0. 0. 2.32558139e-02 0. 0. 0. 0. 0. 2.32558139e-02 0.
      4.65116277e-02 0. 0. 0. 0. 0. 0. 0. 0. 0. 0. 0. 0. 0.
      2.32558139e-02 0. 2.32558139e-02 0. 0. 0. 0. 0. 0. 0. 0. 0.
      2.32558139e-02 0. 0. 2.32558139e-02 0. 0. 0. 0. 0. 0. 0. 0. 0. 0.
      0. 0. 0. 0. 0. 0. 0. 0. 0. 0. 0. 0. 0. 0. 0. 0. 0. 0. 0. 0. 0. 0.
      0. 0. 0. 0. 0. 0. 0. 0. 0. 0. 0. 0. 0. 0. 0. 0. 0. 0. 0. 0. 0. 0.
      0. 0. 0. 0. 0. 0. 0. 0. 0. 0. 0. 0. 0. 0. 0. 0. 0. 0. 0. 0. 0. 0.
      0. 0. 0. 0. 0. 0. 0. 0. 0. 0. 0. 0. 0. 0. 0. 0. 0. 0. 0. 0. 0. 0.
      0. 0. 0. 0. 0. 0. 0. 0. 0. 0. 0. 0. 0. 0. 0. 0. 0. 0. 0. 0. 0. 0.
      0. 0. 0. 0. 0. 0. 0. 0. 0. 0. 0. 0. 0. 0. 2.32558139e-02 0. 0. 0.
      0. 0. 2.32558139e-02 0. 0. 0. 0. 0. 0. 0. 2.32558139e-02 0. 0. 0.
      0. 0. 0. 0. 4.65116277e-02 0. 0. 0. 0. 2.32558139e-02 0. 0. 0.
      2.32558139e-02 0. 0. 0. 0. 0. 0. 0. 0. 0. 0. 0. 0. 0.
      4.65116277e-02 2.32558139e-02 0. 0. 2.32558139e-02 0. 0. 0. 0. 0.
      0. 0. 0. 2.32558139e-02 0. 0. 0. 0. 0. 0. 0. 0. 0. 0. 0. 0. 0. 0.
      0. 0. 2.32558139e-02 0. 0. 2.32558139e-02 0. 0. 0. 0. 0. 0.
      2.32558139e-02 0. 0. 0. 0. 0. 0. 0. 0. 0. 0. 0. 0. 0. 0.
      2.32558139e-02 2.32558139e-02 0. 0. 0. 0. 0. 0. 0. 0. 0. 0. 0. 0.
      0. 0. 0. 0. 0. 0. 0. 0. 0. 0. 0. 0. 0. 0. 0. 0. 0. 0. 0.
      2.32558139e-02 0. 0. 0. 0. 0. 0. 0. 0. 0. 0. 0. 0. 0. 0. 0. 0. 0.
      0. 0. 0. 0. 0. 0. 0. 0. 0. 0. 0. 0. 0. 0. 2.32558139e-02 0. 0. 0.
      0. 0. 0. 0. 0. 0. 0. 0. 0. 0. 0. 0. 0. 0. 0. 0. 0. 0. 0. 0. 0. 0.
      0. 0. 0. 0. 0. 0. 0. 2.32558139e-02 0. 0. 0. 0. 0. 0. 0. 0. 0. 0.
      0. 0. 0. 0. 0. 0. 0. 0. 0. 0. 0. 0. 0. 0. 0.</_>
    <_>
      0. 0. 0. 0. 0. 0. 0. 0. 1.56250000e-02 0. 1.56250000e-02
      1.56250000e-02 0. 0. 0. 0. 0. 0. 0. 0. 0. 0. 0. 1.56250000e-02 0.
      0. 0. 0. 0. 0. 0. 0. 0. 0. 0. 1.56250000e-02 0. 0. 0.
      1.56250000e-02 0. 0. 0. 0. 0. 0. 0. 0. 3.12500000e-02 0. 0. 0. 0.
      1.56250000e-02 0. 0. 0. 0. 0. 0. 0. 0. 0. 0. 0. 0. 0. 0. 0. 0. 0.
      0. 0. 0. 3.12500000e-02 0. 0. 0. 1.56250000e-02 0. 0. 0. 0. 0. 0.
      0. 0. 0. 0. 0. 0. 0. 0. 0. 0. 0. 1.56250000e-02 0. 1.56250000e-02
      0. 1.56250000e-02 0. 0. 0. 0. 0. 0. 0. 0. 0. 1.56250000e-02 0. 0.
      0. 1.56250000e-02 0. 0. 0. 0. 0. 0. 0. 0. 0. 0. 0. 0. 0. 0. 0. 0.
      0. 0. 0. 1.56250000e-02 0. 0. 0. 3.12500000e-02 0. 0. 0. 0. 0. 0.
      0. 0. 3.12500000e-02 1.56250000e-02 0. 0. 0. 0. 0. 0. 0. 0. 0. 0.
      0. 0. 1.56250000e-02 0. 0. 0. 0. 0. 0. 0. 0. 0. 0. 1.56250000e-02
      0. 0. 0. 0. 0. 0. 0. 0. 0. 0. 0. 0. 0. 0. 0. 0. 0. 0. 0. 0. 0. 0.
      1.56250000e-02 0. 0. 0. 0. 0. 0. 1.56250000e-02 0. 0. 0. 0. 0. 0.
      0. 0. 0. 0. 0. 0. 0. 0. 0. 1.56250000e-02 0. 0. 0. 0. 0. 0. 0. 0.
      0. 0. 0. 1.56250000e-02 1.56250000e-02 0. 0. 1.56250000e-02 0.
      1.56250000e-02 0. 0. 1.56250000e-02 0. 0. 0. 0. 1.56250000e-02
      1.56250000e-02 1.56250000e-02 0. 0. 0. 0. 0. 0. 0. 0. 0. 0. 0. 0.
      0. 0. 0. 0. 0. 0. 0. 0. 0. 0. 0. 0. 0. 0. 0. 0. 0. 1.56250000e-02
      0. 1.56250000e-02 0. 0. 0. 0. 0. 0. 0. 0. 0. 0. 0. 0. 0. 0. 0.
      1.56250000e-02 0. 0. 0. 0. 0. 0. 0. 1.56250000e-02 1.56250000e-02
      0. 0. 0. 0. 0. 0. 0. 0. 0. 0. 0. 0. 0. 0. 1.56250000e-02 0. 0. 0.
      0. 1.56250000e-02 0. 0. 0. 1.56250000e-02 0. 0. 0. 0. 0. 0. 0. 0.
      0. 0. 0. 0. 0. 0. 0. 0. 0. 1.56250000e-02 0. 0. 0. 0. 0. 0. 0. 0.
      0. 0. 0. 1.56250000e-02 0. 0. 0. 0. 0. 0. 0. 0. 0. 0.
      1.56250000e-02 0. 0. 1.56250000e-02 0. 0. 0. 0. 0. 0. 0. 0. 0. 0.
      0. 0. 0. 0. 0. 1.56250000e-02 0. 0. 0. 0. 0. 0. 0. 0. 0. 0. 0. 0.
      0. 0. 0. 0. 0. 0. 0. 1.56250000e-02 0. 0. 0. 1.56250000e-02 0. 0.
      0. 0. 0. 1.56250000e-02 0. 0. 0. 0. 0. 0. 0. 1.56250000e-02 0. 0.
      0. 0. 0. 3.12500000e-02 0. 0. 0. 0. 0. 0. 0. 0. 0. 0. 0. 0. 0. 0.
      0. 0. 0. 0. 1.56250000e-02 0. 0. 0. 0. 0. 0. 0. 0. 0. 0. 0. 0. 0.
      1.56250000e-02 0. 0. 0. 0. 0. 0. 1.56250000e-02 0. 0. 0. 0. 0. 0.
      1.56250000e-02 0. 0. 0. 0. 0. 0. 0. 0. 0. 0. 1.56250000e-02 0. 0.
      0. 0. 0. 0. 0. 0. 1.56250000e-02 0. 0. 1.56250000e-02
      1.56250000e-02 0. 1.56250000e-02 0. 0. 0. 0. 0. 0. 0.</_>
    <_>
      0. 0. 0. 7.46268630e-02 0. 0. 1.49253728e-02 1.49253728e-02 0. 0.
      0. 0. 0. 0. 0. 0. 0. 0. 0. 0. 0. 0. 0. 0. 0. 0. 0. 0. 0. 0.
      1.49253728e-02 0. 0. 0. 0. 2.98507456e-02 0. 0. 0. 0. 0. 0. 0. 0.
      0. 0. 1.49253728e-02 0. 0. 0. 0. 0. 0. 0. 0. 1.49253728e-02 0. 0.
      0. 0. 0. 0. 0. 0. 0. 0. 1.49253728e-02 0. 0. 0. 1.49253728e-02 0.
      0. 0. 0. 0. 0. 0. 0. 0. 0. 0. 0. 0. 0. 0. 0. 0. 0. 0. 0. 0. 0.
      1.49253728e-02 0. 0. 0. 0. 0. 0. 0. 0. 0. 0. 0. 0. 0. 0. 0. 0. 0.
      0. 0. 0. 0. 0. 0. 0. 0. 0. 0. 0. 0. 0. 0. 0. 0. 0. 0. 0. 0. 0. 0.
      0. 2.98507456e-02 0. 1.49253728e-02 0. 0. 0. 0. 0. 0. 0. 0. 0. 0.
      0. 0. 0. 0. 0. 0. 0. 0. 0. 0. 4.47761193e-02 0. 0. 2.98507456e-02
      0. 0. 0. 0. 2.98507456e-02 0. 0. 0. 0. 0. 0. 0. 0. 0. 0. 0. 0. 0.
      0. 1.49253728e-02 1.49253728e-02 0. 0. 1.49253728e-02 0. 0. 0. 0.
      0. 0. 0. 0. 1.49253728e-02 0. 0. 0. 0. 0. 0. 0. 0. 0. 0. 0. 0. 0.
      0. 0. 0. 0. 0. 0. 0. 0. 0. 0. 0. 0. 0. 0. 1.49253728e-02 0. 0.
      1.49253728e-02 0. 0. 0. 0. 0. 0. 0. 0. 0. 0. 0. 0. 0.
      1.49253728e-02 0. 0. 0. 0. 0. 0. 0. 0. 0. 0. 0. 1.49253728e-02 0.
      0. 1.49253728e-02 0. 0. 0. 0. 0. 0. 0. 1.49253728e-02 0. 0. 0. 0.
      0. 0. 0. 0. 0. 0. 0. 0. 0. 0. 0. 0. 0. 0. 0. 0. 0. 0. 0. 0. 0. 0.
      0. 0. 0. 0. 0. 1.49253728e-02 0. 0. 1.49253728e-02 0. 0. 0. 0. 0.
      0. 0. 1.49253728e-02 0. 0. 0. 0. 0. 1.49253728e-02 0. 0. 0. 0. 0.
      0. 0. 0. 0. 1.49253728e-02 0. 0. 0. 0. 0. 0. 0. 2.98507456e-02 0.
      0. 0. 0. 0. 0. 0. 0. 0. 0. 0. 0. 0. 0. 0. 0. 0. 0. 0. 0. 0. 0. 0.
      0. 0. 0. 0. 0. 0. 0. 0. 0. 0. 0. 0. 0. 0. 0. 0. 0. 0. 0. 0. 0. 0.
      0. 0. 0. 0. 0. 0. 0. 0. 0. 0. 0. 0. 0. 0. 0. 0. 0. 0. 0. 0. 0. 0.
      0. 0. 0. 0. 0. 0. 0. 0. 0. 0. 0. 0. 0. 0. 1.49253728e-02
      1.49253728e-02 0. 0. 0. 0. 0. 0. 0. 4.47761193e-02 0. 0. 0. 0. 0.
      0. 0. 0. 0. 1.49253728e-02 0. 0. 1.49253728e-02 1.49253728e-02 0.
      0. 0. 0. 0. 0. 0. 0. 0. 0. 0. 0. 2.98507456e-02 0. 0. 0.
      1.49253728e-02 0. 0. 0. 0. 0. 0. 0. 1.49253726e-01 1.49253728e-02
      0. 0. 0. 0. 0. 0. 0. 0. 0. 0. 0. 0. 0. 0. 0. 1.49253728e-02 0. 0.
      0. 0. 0. 0. 0. 0. 0. 1.49253728e-02 0. 0. 1.49253728e-02 0. 0. 0.
      0. 0. 0. 0. 0. 0. 0. 0. 0. 0. 0. 0. 0. 0. 0. 0. 0. 0. 0. 0.</_>
    <_>
      0. 0. 0. 1.99999996e-02 0. 0. 9.99999978e-03 0. 0. 0. 0. 0. 0. 0.
      0. 0. 0. 0. 0. 0. 0. 0. 0. 0. 9.99999978e-03 9.99999978e-03 0. 0.
      9.99999978e-03 0. 0. 0. 0. 0. 0. 0. 0. 0. 0. 0. 0. 0. 0. 0. 0. 0.
      0. 0. 0. 0. 0. 9.99999978e-03 0. 0. 0. 0. 0. 0. 0. 0.
      9.99999978e-03 0. 0. 9.99999978e-03 0. 9.99999978e-03 0. 0. 0.
      1.99999996e-02 0. 0. 0. 0. 0. 9.99999978e-03 9.99999978e-03
      9.99999978e-03 9.99999978e-03 9.99999978e-03 0. 0. 0. 0.
      9.99999978e-03 9.99999978e-03 0. 0. 9.99999978e-03 0. 0. 0. 0.
      9.99999978e-03 9.99999978e-03 1.99999996e-02 0. 0. 0. 0. 0. 0. 0.
      0. 9.99999978e-03 0. 9.99999978e-03 0. 0. 0. 0. 0. 0. 0. 0. 0.
      9.99999978e-03 0. 9.99999978e-03 0. 0. 0. 0. 0. 0. 0. 0.
      9.99999978e-03 0. 0. 9.99999978e-03 0. 0. 0. 9.99999978e-03 0. 0.
      0. 0. 0. 0. 0. 0. 0. 0. 0. 0. 0. 0. 0. 0. 0. 0. 0. 0. 0. 0.
      2.99999993e-02 0. 0. 0. 0. 0. 9.99999978e-03 0. 0. 0.
      9.99999978e-03 9.99999978e-03 0. 0. 0. 0. 0. 0. 0. 9.99999978e-03
      0. 0. 0. 0. 9.99999978e-03 0. 0. 9.99999978e-03 0. 0. 0.
      9.99999978e-03 0. 9.99999978e-03 0. 0. 0. 0. 0. 0. 0.
      9.99999978e-03 9.99999978e-03 9.99999978e-03 0. 0. 0. 0. 0. 0. 0.
      9.99999978e-03 9.99999978e-03 0. 0. 0. 0. 0. 0. 0. 9.99999978e-03
      0. 0. 0. 9.99999978e-03 0. 0. 0. 0. 9.99999978e-03 0. 0. 0. 0. 0.
      9.99999978e-03 0. 0. 0. 0. 0. 9.99999978e-03 9.99999978e-03 0.
      9.99999978e-03 0. 0. 9.99999978e-03 9.99999978e-03 0. 0. 0. 0. 0.
      9.99999978e-03 0. 9.99999978e-03 0. 0. 0. 0. 0. 0. 0. 0. 0. 0.
      9.99999978e-03 0. 0. 0. 0. 0. 0. 0. 0. 0. 0. 0. 0. 0. 0. 0. 0. 0.
      0. 0. 0. 0. 9.99999978e-03 0. 0. 0. 0. 0. 0. 9.99999978e-03 0. 0.
      0. 0. 9.99999978e-03 0. 0. 0. 0. 0. 0. 0. 0. 9.99999978e-03 0. 0.
      1.99999996e-02 0. 0. 9.99999978e-03 0. 0. 0. 0. 9.99999978e-03 0.
      0. 9.99999978e-03 0. 0. 0. 0. 0. 9.99999978e-03 0. 0.
      9.99999978e-03 0. 0. 0. 0. 9.99999978e-03 0. 0. 0. 0. 0.
      9.99999978e-03 0. 0. 0. 0. 9.99999978e-03 0. 0. 0. 0. 0. 0. 0. 0.
      0. 9.99999978e-03 1.99999996e-02 0. 0. 0. 0. 0. 0. 0. 0. 0. 0. 0.
      0. 0. 1.99999996e-02 0. 0. 0. 0. 0. 9.99999978e-03 0. 0.
      1.99999996e-02 0. 0. 0. 0. 0. 0. 0. 9.99999978e-03 0. 0. 0. 0. 0.
      0. 0. 0. 0. 0. 0. 0. 0. 0. 1.99999996e-02 0. 0. 0. 0. 0. 0. 0. 0.
      0. 0. 9.99999978e-03 9.99999978e-03 0. 0. 0. 0. 0. 0. 0. 0.
      9.99999978e-03 0. 0. 0. 0. 0. 0. 0. 0. 1.99999996e-02 0.
      9.99999978e-03 0. 0. 0. 0. 0. 0. 0. 0. 0. 1.99999996e-02 0. 0. 0.
      0. 0. 0. 0. 0. 0. 0. 0. 0. 0. 1.99999996e-02 0. 0. 9.99999978e-03
      0. 9.99999978e-03 0. 0. 0. 0. 0. 9.99999978e-03 0. 0. 0. 0. 0. 0.
      0. 0. 0. 0. 0. 0. 0. 0. 0. 0. 0. 0. 9.99999978e-03 0. 0. 0. 0. 0.
      1.99999996e-02 0. 0. 0. 0. 0. 0. 0. 0. 0. 0. 0. 0. 0. 0. 0. 0.</_>
    <_>
      0. 0. 0. 0. 0. 0. 0. 0. 4.08163257e-02 0. 0. 0. 0. 0. 0. 0. 0. 0.
      0. 4.08163257e-02 0. 0. 0. 0. 0. 0. 0. 0. 0. 0. 0. 0. 0. 0. 0. 0.
      0. 0. 0. 0. 0. 0. 0. 0. 0. 0. 0. 0. 0. 0. 0. 0. 0. 0. 0. 0. 0. 0.
      0. 0. 0. 2.04081628e-02 0. 0. 0. 0. 0. 0. 0. 0. 0. 0. 0. 0. 0. 0.
      0. 0. 0. 2.04081628e-02 0. 0. 0. 0. 0. 0. 0. 0. 0. 0. 0. 0. 0. 0.
      0. 0. 0. 0. 0. 0. 0. 0. 0. 0. 0. 0. 4.08163257e-02 2.04081628e-02
      2.04081628e-02 0. 0. 0. 0. 0. 0. 0. 0. 0. 2.04081628e-02 0. 0. 0.
      0. 0. 0. 0. 0. 0. 0. 0. 0. 0. 0. 0. 0. 0. 0. 0. 0. 0. 0. 0. 0. 0.
      0. 0. 0. 0. 0. 0. 0. 0. 0. 0. 0. 0. 0. 0. 0. 0. 0. 0.
      2.04081628e-02 0. 0. 0. 0. 0. 0. 0. 0. 0. 0. 2.04081628e-02 0. 0.
      2.04081628e-02 0. 0. 0. 0. 0. 0. 0. 0. 2.04081628e-02 0. 0. 0. 0.
      0. 0. 0. 0. 0. 0. 0. 0. 0. 0. 0. 0. 0. 0. 0. 2.04081628e-02
      2.04081628e-02 0. 0. 0. 0. 0. 0. 0. 0. 0. 2.04081628e-02 0. 0. 0.
      0. 0. 0. 0. 0. 0. 0. 0. 0. 0. 2.04081628e-02 2.04081628e-02 0. 0.
      0. 0. 0. 2.04081628e-02 0. 0. 0. 0. 0. 0. 0. 0. 0. 0. 0.
      2.04081628e-02 0. 0. 0. 0. 0. 0. 0. 0. 0. 0. 0. 0. 0. 0. 0. 0. 0.
      0. 0. 0. 0. 0. 0. 0. 0. 0. 0. 0. 2.04081628e-02 0. 2.04081628e-02
      0. 0. 0. 0. 0. 0. 0. 0. 0. 0. 0. 0. 0. 0. 0. 0. 0. 0. 0. 0. 0. 0.
      0. 0. 2.04081628e-02 0. 0. 0. 0. 0. 0. 0. 0. 0. 2.04081628e-02 0.
      0. 0. 2.04081628e-02 0. 0. 0. 0. 0. 0. 0. 0. 0. 0. 0. 0. 0. 0. 0.
      0. 0. 0. 0. 0. 0. 0. 4.08163257e-02 0. 0. 0. 0. 0. 0. 0. 0. 0. 0.
      0. 0. 0. 2.04081628e-02 0. 0. 0. 0. 0. 0. 0. 0. 0. 0. 0. 0. 0. 0.
      0. 0. 0. 0. 0. 0. 0. 0. 2.04081628e-02 0. 0. 2.04081628e-02 0. 0.
      0. 0. 0. 0. 0. 0. 2.04081628e-02 2.04081628e-02 0. 0. 0. 0.
      2.04081628e-02 0. 2.04081628e-02 2.04081628e-02 0. 0. 0. 0. 0. 0.
      0. 0. 0. 0. 0. 0. 0. 0. 0. 0. 0. 0. 0. 0. 0. 0. 0. 0. 0. 0. 0. 0.
      0. 0. 0. 0. 0. 0. 0. 0. 0. 0. 0. 0. 0. 2.04081628e-02 0. 0.
      2.04081628e-02 0. 0. 0. 0. 0. 0. 0. 0. 2.04081628e-02 0.
      2.04081628e-02 0. 0. 2.04081628e-02 0. 2.04081628e-02 0. 0. 0. 0.
      0. 0. 0. 0. 0. 0. 0. 2.04081628e-02 0. 0. 0. 0. 0. 0. 0. 0. 0.
      2.04081628e-02 0. 0. 2.04081628e-02 0. 0. 4.08163257e-02 0. 0. 0.
      0. 0. 0. 0. 2.04081628e-02 0. 0. 0. 0. 0. 0. 0. 0. 0. 0. 0. 0. 0.
      0.</_>
    <_>
      0. 0. 0. 0. 0. 0. 0. 0. 0. 0. 0. 0. 0. 0. 0. 0. 0. 2.17391308e-02
      0. 0. 2.17391308e-02 0. 0. 2.17391308e-02 0. 0. 0. 0. 0. 0. 0. 0.
      0. 0. 0. 0. 0. 0. 0. 2.17391308e-02 0. 0. 2.17391308e-02 0. 0. 0.
      0. 0. 0. 0. 0. 0. 0. 0. 0. 0. 0. 0. 0. 0. 0. 2.17391308e-02 0. 0.
      0. 0. 0. 0. 0. 0. 0. 0. 0. 2.17391308e-02 0. 0. 0. 0. 0. 0. 0. 0.
      0. 0. 0. 0. 0. 0. 0. 0. 0. 0. 0. 0. 0. 0. 2.17391308e-02 0. 0. 0.
      0. 0. 0. 0. 0. 0. 2.17391308e-02 0. 0. 0. 0. 0. 0. 0. 0. 0. 0. 0.
      0. 0. 0. 0. 0. 0. 0. 0. 0. 0. 0. 0. 0. 0. 0. 0. 0. 0. 0. 0.
      2.17391308e-02 0. 0. 0. 2.17391308e-02 0. 0. 0. 0. 0. 0.
      2.17391308e-02 0. 0. 0. 2.17391308e-02 0. 0. 0. 0. 0. 0.
      2.17391308e-02 0. 0. 0. 0. 0. 0. 0. 0. 0. 0. 2.17391308e-02 0. 0.
      0. 0. 0. 0. 0. 0. 0. 0. 0. 0. 0. 0. 2.17391308e-02 0. 0. 0. 0. 0.
      2.17391308e-02 4.34782617e-02 0. 0. 0. 0. 0. 0. 0. 2.17391308e-02
      0. 0. 0. 0. 0. 0. 0. 2.17391308e-02 0. 0. 0. 0. 0. 0. 0. 0. 0. 0.
      0. 0. 0. 2.17391308e-02 0. 0. 2.17391308e-02 0. 0. 0. 0. 0. 0. 0.
      0. 0. 0. 2.17391308e-02 0. 0. 0. 0. 2.17391308e-02 0. 0. 0. 0. 0.
      0. 0. 0. 0. 0. 0. 0. 0. 0. 0. 0. 0. 2.17391308e-02 0. 0. 0. 0. 0.
      0. 0. 0. 0. 0. 0. 0. 0. 0. 0. 0. 0. 0. 0. 0. 0. 0. 0. 0. 0. 0. 0.
      2.17391308e-02 2.17391308e-02 0. 0. 0. 0. 0. 0. 0. 2.17391308e-02
      0. 0. 0. 0. 0. 0. 0. 0. 0. 0. 2.17391308e-02 0. 0. 0. 0. 0. 0. 0.
      0. 0. 0. 0. 0. 0. 0. 0. 0. 0. 0. 0. 0. 0. 0. 0. 0. 0. 0. 0. 0. 0.
      0. 2.17391308e-02 0. 0. 0. 0. 0. 0. 0. 0. 2.17391308e-02
      2.17391308e-02 0. 0. 0. 0. 0. 0. 2.17391308e-02 0. 0. 0. 0. 0. 0.
      0. 0. 2.17391308e-02 0. 0. 0. 0. 0. 0. 0. 0. 0. 0. 0. 0. 0. 0.
      2.17391308e-02 0. 0. 0. 0. 0. 0. 0. 0. 0. 0. 0. 0. 0. 0. 0. 0.
      2.17391308e-02 0. 0. 0. 2.17391308e-02 0. 0. 0. 0. 0. 0. 0. 0. 0.
      0. 0. 0. 0. 0. 0. 0. 4.34782617e-02 0. 0. 2.17391308e-02 0. 0. 0.
      2.17391308e-02 0. 2.17391308e-02 0. 0. 0. 0. 0. 0. 0. 0. 0. 0. 0.
      0. 0. 0. 0. 0. 0. 0. 0. 0. 0. 0. 0. 0. 0. 0. 0. 0. 0. 0. 0. 0. 0.
      0. 0. 0. 0. 0. 0. 0. 0. 0. 0. 0. 0. 0. 0. 0. 0. 0. 0. 0. 0. 0. 0.
      0. 0. 0. 0. 0. 0. 0. 0. 0. 0. 0. 0. 0. 0. 0. 0. 0. 0. 0. 0.
      2.17391308e-02 2.17391308e-02 2.17391308e-02 0. 0. 0. 0. 0. 0.</_>
    <_>
      0. 0. 0. 0. 0. 0. 0. 0. 0. 0. 0. 0. 0. 0. 0. 0. 0. 0. 0. 0. 0. 0.
      0. 0. 0. 0. 0. 0. 0. 0. 0. 2.70270277e-02 0. 0. 0. 2.70270277e-02
      0. 0. 0. 2.70270277e-02 0. 0. 0. 0. 0. 0. 0. 0. 0. 0. 0. 0. 0. 0.
      0. 0. 0. 0. 0. 0. 0. 2.70270277e-02 0. 0. 0. 0. 0. 0. 0. 0. 0. 0.
      2.70270277e-02 0. 0. 0. 0. 2.70270277e-02 0. 0. 0. 0. 0. 0. 0. 0.
      0. 0. 0. 0. 0. 0. 0. 0. 0. 0. 0. 0. 0. 0. 0. 0. 0. 0. 0. 0. 0. 0.
      0. 0. 0. 0. 0. 0. 0. 0. 2.70270277e-02 0. 0. 0. 0. 0. 0. 0. 0. 0.
      0. 0. 0. 0. 0. 0. 0. 0. 0. 0. 0. 0. 0. 2.70270277e-02 0. 0. 0. 0.
      0. 0. 0. 0. 0. 2.70270277e-02 5.40540554e-02 0. 0. 0. 0. 0. 0. 0.
      0. 0. 0. 0. 0. 0. 0. 0. 0. 0. 0. 0. 0. 0. 0. 0. 0. 0. 0. 0. 0. 0.
      0. 0. 0. 0. 0. 0. 0. 0. 0. 0. 0. 0. 0. 0. 0. 2.70270277e-02 0. 0.
      0. 0. 0. 0. 0. 2.70270277e-02 0. 0. 0. 0. 0. 0. 0. 0. 0. 0. 0. 0.
      0. 0. 0. 0. 0. 0. 0. 0. 0. 0. 2.70270277e-02 0. 0. 0. 0. 0. 0. 0.
      0. 0. 0. 0. 0. 0. 0. 0. 0. 0. 0. 0. 2.70270277e-02 0. 0. 0. 0.
      2.70270277e-02 0. 0. 0. 0. 0. 0. 0. 0. 0. 0. 0. 0. 0. 0. 0. 0.
      2.70270277e-02 0. 2.70270277e-02 0. 0. 0. 0. 0. 0. 0.
      5.40540554e-02 0. 0. 0. 0. 0. 0. 0. 0. 0. 0. 0. 0. 0. 0. 0. 0. 0.
      0. 0. 0. 0. 0. 0. 2.70270277e-02 0. 0. 0. 2.70270277e-02 0. 0. 0.
      2.70270277e-02 0. 0. 0. 0. 2.70270277e-02 0. 0. 0. 0. 0. 0. 0. 0.
      0. 0. 0. 0. 0. 0. 0. 0. 0. 0. 0. 0. 0. 0. 0. 0. 0. 0. 0. 0. 0. 0.
      0. 0. 0. 2.70270277e-02 0. 0. 2.70270277e-02 0. 0. 0. 0. 0. 0. 0.
      0. 0. 0. 0. 0. 0. 0. 0. 0. 0. 0. 0. 0. 0. 0. 0. 0. 0. 0. 0.
      2.70270277e-02 2.70270277e-02 0. 0. 0. 0. 0. 0. 0. 0. 0. 0. 0. 0.
      2.70270277e-02 0. 5.40540554e-02 0. 0. 0. 0. 0. 0. 0. 0. 0. 0. 0.
      2.70270277e-02 0. 0. 0. 0. 0. 2.70270277e-02 2.70270277e-02 0. 0.
      2.70270277e-02 0. 0. 0. 0. 0. 0. 0. 0. 0. 0. 0. 0. 0. 0. 0. 0. 0.
      0. 0. 0. 0. 0. 0. 0. 0. 0. 0. 0. 0. 0. 0. 0. 0. 0. 0. 0. 0. 0. 0.
      0. 0. 0. 0. 2.70270277e-02 0. 0. 0. 0. 2.70270277e-02 0. 0. 0. 0.
      0. 0. 0. 0. 0. 0. 0. 0. 0. 0. 0. 0. 0. 0. 0. 0. 0. 0. 0. 0. 0. 0.
      0. 0. 0. 0. 0. 0. 0. 0. 0. 0. 0. 0. 0. 0. 0. 0. 0. 0.</_>
    <_>
      0. 0. 0. 0. 0. 0. 0. 0. 0. 0. 0. 0. 0. 0. 0. 0. 0. 0. 0. 0. 0. 0.
      0. 0. 0. 0. 0. 0. 0. 0. 0. 0. 0. 0. 0. 0. 0. 0. 0. 0. 0. 0. 0. 0.
      0. 0. 0. 0. 0. 0. 0. 0. 0. 0. 0. 0. 0. 0. 2.63157897e-02 0. 0. 0.
      0. 0. 0. 0. 2.63157897e-02 0. 0. 2.63157897e-02 0. 0. 0. 0. 0. 0.
      0. 0. 0. 0. 0. 0. 0. 0. 0. 0. 0. 0. 0. 0. 0. 0. 0. 0. 0. 0.
      2.63157897e-02 0. 0. 0. 0. 0. 2.63157897e-02 0. 0. 0. 0. 0. 0. 0.
      0. 0. 0. 0. 0. 0. 0. 0. 0. 0. 0. 0. 0. 2.63157897e-02 0. 0. 0. 0.
      0. 0. 0. 0. 2.63157897e-02 0. 0. 0. 0. 0. 0. 0. 0. 0. 0. 0. 0. 0.
      0. 0. 0. 0. 0. 2.63157897e-02 0. 0. 0. 0. 0. 0. 0. 0. 0. 0. 0. 0.
      0. 0. 0. 0. 0. 0. 0. 0. 0. 0. 0. 0. 0. 2.63157897e-02 0. 0. 0. 0.
      0. 0. 0. 0. 0. 0. 0. 0. 0. 0. 0. 0. 0. 0. 0. 0. 0. 0. 0. 0. 0. 0.
      0. 0. 0. 0. 0. 0. 2.63157897e-02 2.63157897e-02 0. 0. 0. 0. 0. 0.
      0. 0. 2.63157897e-02 0. 0. 0. 0. 2.63157897e-02 0. 0. 0. 0. 0. 0.
      0. 2.63157897e-02 0. 0. 0. 0. 0. 0. 2.63157897e-02 0. 0. 0. 0.
      2.63157897e-02 0. 0. 0. 0. 0. 0. 0. 0. 0. 0. 0. 0. 2.63157897e-02
      0. 0. 0. 0. 0. 0. 0. 0. 0. 2.63157897e-02 0. 2.63157897e-02 0. 0.
      0. 0. 2.63157897e-02 0. 0. 2.63157897e-02 0. 0. 0. 0. 0. 0. 0. 0.
      0. 0. 0. 0. 0. 0. 0. 0. 0. 0. 0. 2.63157897e-02 0. 0. 0.
      7.89473653e-02 0. 0. 0. 0. 0. 0. 0. 0. 0. 0. 0. 0. 0. 0. 0. 0. 0.
      0. 0. 0. 0. 0. 0. 0. 0. 0. 0. 0. 0. 0. 0. 0. 0. 0. 0. 0. 0. 0. 0.
      0. 0. 0. 0. 0. 0. 0. 0. 0. 2.63157897e-02 0. 0. 0. 0. 0. 0. 0. 0.
      0. 0. 0. 0. 0. 0. 0. 2.63157897e-02 0. 0. 0. 0. 0. 0. 0. 0. 0. 0.
      0. 0. 0. 0. 0. 0. 0. 0. 0. 0. 0. 0. 0. 2.63157897e-02 0. 0. 0. 0.
      5.26315793e-02 0. 0. 0. 0. 0. 0. 0. 0. 2.63157897e-02 0. 0. 0. 0.
      0. 0. 0. 0. 0. 0. 0. 0. 2.63157897e-02 0. 0. 0. 0. 0. 0. 0. 0.
      2.63157897e-02 0. 0. 2.63157897e-02 0. 0. 0. 0. 2.63157897e-02 0.
      0. 0. 0. 0. 0. 0. 0. 0. 0. 0. 2.63157897e-02 0. 0. 0. 0. 0.
      2.63157897e-02 0. 0. 0. 0. 0. 0. 0. 0. 0. 0. 0. 0. 0. 0. 0. 0. 0.
      0. 0. 0. 0. 0. 0. 0. 0. 0. 0. 0. 0. 0. 0. 0. 0. 0. 0. 0. 0. 0. 0.
      0. 0. 0. 0. 2.63157897e-02 0. 0. 0. 0. 0. 0. 0. 0. 0. 0. 0. 0. 0.
      0.</_>
    <_>
      0. 0. 0. 0. 0. 0. 0. 0. 0. 0. 0. 0. 3.57142873e-02 0. 0. 0. 0. 0.
      0. 0. 3.57142873e-02 0. 0. 0. 0. 0. 0. 0. 0. 0. 0. 0. 0. 0. 0. 0.
      0. 0. 0. 0. 3.57142873e-02 0. 0. 3.57142873e-02 0. 0. 0. 0. 0. 0.
      0. 0. 0. 0. 0. 0. 0. 0. 0. 0. 0. 0. 0. 0. 0. 0. 0. 0. 0.
      3.57142873e-02 0. 0. 3.57142873e-02 0. 0. 0. 0. 0. 0. 0. 0. 0. 0.
      0. 0. 0. 0. 0. 0. 0. 0. 0. 0. 0. 0. 0. 0. 0. 0. 0. 0. 0. 0. 0. 0.
      0. 0. 0. 0. 0. 0. 3.57142873e-02 0. 0. 0. 0. 0. 3.57142873e-02 0.
      0. 0. 0. 0. 0. 3.57142873e-02 0. 0. 0. 0. 0. 0. 0. 0. 0. 0. 0. 0.
      0. 0. 0. 0. 0. 0. 0. 0. 0. 0. 0. 0. 3.57142873e-02 0. 0. 0. 0. 0.
      0. 0. 0. 0. 0. 0. 0. 0. 0. 0. 0. 0. 0. 0. 0. 0. 0. 0. 0. 0. 0. 0.
      0. 0. 0. 0. 0. 0. 0. 0. 0. 0. 0. 0. 0. 0. 0. 0. 0. 0. 0. 0. 0. 0.
      0. 0. 0. 0. 0. 3.57142873e-02 0. 0. 0. 0. 0. 0. 0. 0. 0. 0. 0. 0.
      0. 0. 0. 0. 0. 0. 0. 0. 0. 0. 0. 3.57142873e-02 0. 0. 0. 0. 0. 0.
      0. 0. 3.57142873e-02 0. 0. 0. 0. 0. 0. 0. 0. 0. 0. 0. 0. 0. 0. 0.
      0. 0. 0. 0. 0. 0. 0. 0. 0. 0. 0. 0. 0. 0. 0. 0. 0. 7.14285746e-02
      0. 0. 0. 0. 0. 0. 0. 3.57142873e-02 0. 0. 3.57142873e-02 0. 0. 0.
      0. 0. 0. 0. 0. 0. 0. 0. 0. 0. 0. 0. 0. 0. 0. 0. 0. 3.57142873e-02
      0. 0. 0. 0. 0. 0. 0. 0. 0. 0. 0. 0. 0. 0. 0. 0. 0. 3.57142873e-02
      3.57142873e-02 3.57142873e-02 0. 0. 0. 0. 0. 0. 0. 0. 0. 0. 0. 0.
      0. 0. 0. 0. 0. 0. 0. 0. 0. 0. 0. 0. 0. 0. 0. 0. 0. 0. 0. 0. 0. 0.
      0. 0. 0. 0. 0. 0. 0. 0. 0. 0. 0. 0. 0. 0. 0. 0. 0. 0. 0. 0. 0. 0.
      0. 3.57142873e-02 0. 0. 0. 0. 0. 0. 0. 0. 0. 0. 0. 0. 0. 0.
      3.57142873e-02 3.57142873e-02 0. 0. 0. 0. 0. 0. 0. 0. 0.
      3.57142873e-02 0. 0. 0. 0. 0. 0. 0. 0. 0. 0. 0. 0. 0. 0. 0. 0. 0.
      0. 0. 3.57142873e-02 0. 0. 0. 0. 0. 0. 0. 0. 0. 0. 0. 0. 0. 0. 0.
      0. 0. 0. 0. 0. 0. 0. 0. 0. 0. 0. 0. 0. 0. 0. 0. 0. 0. 0. 0. 0. 0.
      0. 0. 0. 0. 3.57142873e-02 0. 0. 0. 0. 0. 0. 0. 0. 0. 0. 0. 0. 0.
      0. 3.57142873e-02 0. 0. 0. 0. 0. 0. 0. 0. 0. 0. 0. 0. 0. 0. 0. 0.
      0. 0. 0. 0. 0. 0. 0. 0. 0. 0. 0. 0.</_>
    <_>
      0. 0. 1.61290318e-02 3.22580636e-02 0. 0. 1.61290318e-02
      3.22580636e-02 0. 1.61290318e-02 0. 0. 0. 0. 0. 0. 0. 0. 0. 0. 0.
      0. 0. 1.61290318e-02 0. 0. 0. 1.61290318e-02 0. 0. 0. 0.
      1.61290318e-02 0. 0. 0. 0. 0. 0. 0. 0. 0. 0. 0. 0. 0. 0. 0. 0. 0.
      0. 0. 0. 0. 0. 0. 0. 0. 0. 0. 0. 0. 0. 0. 0. 0. 0. 0. 0.
      1.61290318e-02 0. 0. 0. 0. 0. 0. 0. 0. 0. 0. 0. 0. 0.
      1.61290318e-02 0. 0. 0. 0. 0. 0. 0. 0. 0. 0. 0. 0. 0. 0.
      1.61290318e-02 0. 0. 0. 0. 0. 0. 0. 0. 0. 0. 1.61290318e-02 0. 0.
      0. 0. 0. 0. 0. 0. 0. 0. 0. 0. 0. 0. 0. 0. 0. 0. 0. 0.
      1.61290318e-02 0. 0. 0. 0. 0. 1.61290318e-02 0. 3.22580636e-02 0.
      0. 0. 0. 0. 0. 0. 0. 0. 0. 0. 0. 0. 0. 0. 0. 0. 0. 1.61290318e-02
      0. 0. 0. 0. 0. 0. 1.61290318e-02 0. 0. 0. 0. 0. 0. 0. 0.
      1.61290318e-02 0. 0. 0. 0. 0. 0. 0. 0. 0. 0. 0. 0. 3.22580636e-02
      0. 1.61290318e-02 0. 0. 0. 1.61290318e-02 1.61290318e-02
      1.61290318e-02 0. 0. 0. 0. 0. 0. 0. 0. 3.22580636e-02 0. 0. 0. 0.
      3.22580636e-02 0. 0. 0. 0. 0. 0. 0. 0. 0. 0. 0. 0. 0. 0. 0. 0. 0.
      0. 0. 0. 0. 0. 0. 0. 0. 0. 0. 0. 0. 0. 0. 0. 0. 0. 0.
      1.61290318e-02 0. 0. 0. 0. 0. 0. 0. 0. 0. 0. 0. 0. 0. 0. 0. 0. 0.
      0. 0. 0. 0. 0. 0. 0. 0. 0. 0. 0. 3.22580636e-02 0. 0. 0.
      1.61290318e-02 0. 0. 0. 0. 0. 0. 0. 0. 0. 0. 0. 0. 0. 0. 0. 0. 0.
      1.61290318e-02 0. 0. 3.22580636e-02 0. 0. 0. 0. 0. 1.61290318e-02
      0. 0. 0. 1.61290318e-02 0. 1.61290318e-02 0. 0. 0. 1.61290318e-02
      0. 0. 0. 0. 0. 0. 1.61290318e-02 1.61290318e-02 1.61290318e-02 0.
      1.61290318e-02 0. 0. 0. 0. 0. 0. 0. 0. 0. 0. 0. 1.61290318e-02 0.
      0. 0. 0. 0. 0. 0. 0. 0. 0. 0. 0. 0. 0. 0. 0. 0. 0. 0. 0. 0. 0. 0.
      0. 0. 0. 0. 0. 0. 0. 0. 0. 0. 1.61290318e-02 1.61290318e-02 0. 0.
      0. 0. 0. 0. 0. 0. 0. 0. 0. 0. 0. 0. 0. 0. 0. 0. 0. 1.61290318e-02
      0. 1.61290318e-02 0. 0. 0. 0. 0. 0. 0. 0. 0. 0. 0. 0. 0. 0.
      1.61290318e-02 0. 0. 0. 0. 0. 0. 0. 0. 0. 1.61290318e-02 0. 0. 0.
      0. 0. 0. 0. 0. 0. 0. 0. 0. 0. 0. 0. 0. 0. 1.61290318e-02 0. 0. 0.
      0. 0. 0. 0. 0. 0. 0. 0. 0. 0. 0. 0. 0. 0. 0. 0. 1.61290318e-02
      3.22580636e-02 0. 0. 0. 0. 0. 0. 0. 0. 0. 0. 0. 0. 0.
      1.61290318e-02 0. 0. 1.61290318e-02 0. 0. 0. 0. 0. 0. 0. 0.
      1.61290318e-02 1.61290318e-02 0. 0. 0. 0. 0. 0. 0. 0. 0. 0. 0. 0.
      0. 0. 0. 0. 0. 0. 0. 0. 0. 1.61290318e-02 0. 0. 0. 0.</_>
    <_>
      0. 2.70270277e-02 0. 0. 0. 2.70270277e-02 0. 0. 0. 0. 0. 0. 0. 0.
      0. 0. 0. 0. 0. 0. 2.70270277e-02 0. 0. 0. 0. 0. 0. 0. 0. 0. 0. 0.
      0. 0. 0. 0. 2.70270277e-02 0. 0. 0. 0. 0. 0. 0. 0. 0. 0. 0. 0. 0.
      0. 0. 0. 0. 0. 0. 0. 0. 0. 0. 0. 0. 0. 0. 0. 0. 0. 0. 0. 0. 0. 0.
      0. 0. 0. 0. 0. 0. 5.40540554e-02 0. 0. 0. 0. 0. 0. 0.
      2.70270277e-02 0. 0. 0. 0. 0. 0. 0. 0. 0. 5.40540554e-02 0. 0. 0.
      0. 0. 0. 2.70270277e-02 0. 0. 0. 0. 0. 0. 0. 5.40540554e-02 0. 0.
      0. 0. 0. 0. 0. 0. 0. 0. 0. 0. 0. 0. 0. 0. 0. 0. 0. 0. 0. 0.
      2.70270277e-02 0. 0. 0. 0. 0. 0. 2.70270277e-02 0. 0. 0. 0. 0. 0.
      0. 5.40540554e-02 2.70270277e-02 0. 0. 0. 0. 0. 0. 0. 0. 0. 0. 0.
      0. 0. 2.70270277e-02 0. 0. 0. 0. 0. 0. 0. 0. 0. 0. 0. 0. 0. 0. 0.
      0. 0. 0. 0. 0. 0. 0. 0. 0. 0. 0. 0. 0. 0. 0. 0. 0. 0. 0. 0. 0. 0.
      0. 0. 0. 0. 0. 0. 0. 0. 0. 0. 0. 0. 0. 0. 0. 0. 0. 0. 0. 0. 0. 0.
      0. 0. 0. 0. 0. 0. 0. 0. 0. 0. 0. 0. 0. 5.40540554e-02 0. 0. 0. 0.
      0. 0. 0. 0. 2.70270277e-02 0. 0. 0. 0. 0. 0. 0. 0. 0. 0. 0. 0. 0.
      0. 0. 0. 0. 0. 0. 0. 0. 0. 0. 0. 0. 2.70270277e-02 0. 0. 0. 0. 0.
      0. 0. 0. 0. 0. 0. 0. 0. 0. 0. 0. 0. 0. 0. 0. 0. 0. 0. 0. 0. 0. 0.
      0. 0. 0. 2.70270277e-02 0. 0. 0. 0. 0. 0. 2.70270277e-02 0. 0. 0.
      0. 2.70270277e-02 0. 0. 0. 0. 0. 0. 0. 0. 0. 0. 5.40540554e-02 0.
      0. 0. 0. 0. 0. 0. 0. 0. 0. 0. 0. 0. 0. 0. 0. 0. 0. 0. 0. 0. 0. 0.
      0. 0. 0. 0. 0. 0. 0. 0. 0. 0. 0. 0. 0. 0. 0. 0. 0. 0. 0. 0. 0. 0.
      0. 0. 0. 0. 0. 0. 0. 0. 0. 0. 2.70270277e-02 0. 0. 0. 0. 0. 0. 0.
      0. 0. 0. 0. 0. 0. 0. 0. 0. 0. 0. 0. 0. 2.70270277e-02 0. 0. 0. 0.
      0. 0. 0. 0. 0. 0. 0. 0. 0. 2.70270277e-02 0. 2.70270277e-02 0.
      2.70270277e-02 2.70270277e-02 0. 0. 0. 0. 0. 0. 0. 0. 0. 0.
      5.40540554e-02 0. 0. 0. 0. 0. 0. 0. 0. 0. 0. 0. 0. 0. 0. 0. 0. 0.
      0. 0. 0. 0. 0. 0. 0. 0. 0. 0. 0. 0. 2.70270277e-02 0. 0. 0. 0. 0.
      0. 2.70270277e-02 0. 0. 0. 0. 0. 0. 0. 0. 0. 0. 0. 0. 0. 0. 0. 0.
      0. 0. 0. 0. 0. 0. 0. 0. 0. 0. 0. 0. 0. 0. 0. 0. 0. 0. 0. 0. 0. 0.
      0. 0. 0.</_>
    <_>
      0. 0. 1.03092780e-02 0. 0. 0. 0. 0. 0. 0. 1.03092780e-02 0. 0.
      1.03092780e-02 0. 0. 0. 0. 0. 0. 0. 2.06185561e-02 0. 0. 0.
      1.03092780e-02 2.06185561e-02 1.03092780e-02 1.03092780e-02 0. 0.
      0. 0. 0. 0. 0. 0. 0. 0. 0. 0. 0. 0. 0. 0. 0. 0. 0. 0. 0. 0. 0. 0.
      0. 0. 0. 0. 0. 1.03092780e-02 0. 0. 0. 0. 0. 0. 0. 0. 0. 0. 0. 0.
      2.06185561e-02 0. 0. 0. 0. 0. 0. 0. 0. 0. 0. 0. 3.09278350e-02 0.
      0. 0. 0. 0. 0. 0. 0. 0. 0. 0. 0. 0. 0. 0. 0. 0. 0. 0. 0. 0.
      2.06185561e-02 1.03092780e-02 0. 0. 0. 0. 0. 0. 0. 0. 0. 0. 0. 0.
      0. 0. 0. 0. 0. 0. 0. 0. 0. 0. 2.06185561e-02 0. 0. 0. 0. 0. 0.
      1.03092780e-02 0. 0. 0. 0. 0. 0. 0. 0. 0. 0. 0. 0. 0.
      1.03092780e-02 0. 1.03092780e-02 0. 0. 0. 0. 0. 0. 0. 0. 0. 0. 0.
      0. 0. 0. 0. 1.03092780e-02 0. 0. 0. 0. 0. 0. 0. 0. 0. 0. 0. 0. 0.
      0. 0. 0. 0. 0. 0. 0. 0. 0. 0. 1.03092780e-02 0. 0. 0.
      1.03092780e-02 0. 0. 0. 0. 0. 0. 0. 0. 0. 0. 0. 0. 1.03092780e-02
      0. 9.27835032e-02 2.06185561e-02 0. 0. 0. 0. 0. 0. 1.03092780e-02
      0. 0. 0. 0. 0. 0. 0. 0. 0. 1.03092780e-02 1.03092780e-02 0. 0. 0.
      0. 1.03092780e-02 0. 0. 0. 0. 0. 0. 0. 0. 0. 0. 0. 0. 0. 0. 0. 0.
      0. 0. 0. 0. 1.03092780e-02 0. 0. 0. 0. 0. 0. 0. 0. 0.
      1.03092780e-02 0. 0. 0. 0. 0. 0. 0. 0. 1.03092780e-02 0. 0. 0. 0.
      0. 0. 0. 0. 0. 0. 0. 0. 0. 0. 1.03092780e-02 0. 0. 0. 0. 0. 0. 0.
      1.03092780e-02 0. 0. 0. 0. 0. 0. 0. 0. 0. 0. 0. 0. 0. 0. 0. 0. 0.
      0. 0. 0. 0. 1.03092780e-02 0. 1.03092780e-02 0. 0. 0.
      1.03092780e-02 2.06185561e-02 0. 0. 0. 0. 0. 0. 1.03092780e-02 0.
      0. 6.18556701e-02 0. 1.03092780e-02 0. 0. 0. 0. 0. 2.06185561e-02
      0. 0. 1.03092780e-02 0. 0. 0. 0. 0. 0. 0. 0. 0. 1.03092780e-02 0.
      0. 0. 0. 0. 0. 0. 0. 0. 0. 0. 0. 0. 0. 4.12371121e-02 0. 0. 0. 0.
      0. 2.06185561e-02 0. 0. 0. 2.06185561e-02 0. 0. 0. 0.
      1.03092780e-02 0. 1.03092780e-02 0. 0. 0. 0. 1.03092780e-02 0. 0.
      0. 0. 0. 0. 0. 0. 0. 1.03092780e-02 0. 0. 1.03092780e-02
      1.03092780e-02 0. 0. 0. 0. 0. 1.03092780e-02 0. 0. 0. 0. 0. 0. 0.
      0. 0. 1.03092780e-02 0. 1.03092780e-02 0. 0. 0. 0. 0. 0. 0. 0. 0.
      1.03092780e-02 0. 0. 0. 0. 0. 0. 0. 1.03092780e-02 0. 0.
      1.03092780e-02 0. 0. 0. 0. 4.12371121e-02 0. 0. 0. 0. 0. 0. 0. 0.
      0. 1.03092780e-02 0. 0. 0. 0. 1.03092780e-02 0. 0. 0.
      1.03092780e-02 0. 0. 1.03092780e-02 0. 0. 0. 0. 0. 0. 0. 0.
      2.06185561e-02 0. 1.03092780e-02 0. 0. 0. 0. 0. 0. 0. 0. 0. 0. 0.
      0. 0. 0. 1.03092780e-02 0. 0. 0. 0. 0. 0. 0. 0. 0. 0.</_>
    <_>
      0. 0. 0. 0. 0. 0. 0. 0. 0. 0. 0. 0. 0. 0. 0. 0. 0. 0. 0. 0. 0. 0.
      0. 0. 0. 0. 0. 0. 0. 0. 0. 0. 0. 0. 3.57142873e-02 0. 0. 0. 0. 0.
      0. 0. 3.57142873e-02 0. 0. 0. 0. 0. 0. 0. 0. 0. 0. 0. 0. 0. 0. 0.
      0. 0. 3.57142873e-02 0. 3.57142873e-02 0. 0. 0. 0. 0. 0. 0. 0. 0.
      0. 0. 0. 0. 0. 0. 0. 0. 0. 0. 0. 0. 0. 0. 0. 0. 0. 0. 0. 0. 0. 0.
      0. 0. 0. 0. 0. 0. 0. 0. 0. 0. 0. 0. 3.57142873e-02 0. 0. 0. 0. 0.
      0. 0. 0. 0. 0. 0. 0. 0. 0. 0. 0. 0. 0. 0. 0. 0. 0. 0. 0.
      3.57142873e-02 0. 0. 0. 0. 0. 0. 0. 0. 0. 0. 0. 0. 0. 0. 0.
      3.57142873e-02 0. 0. 0. 0. 0. 0. 0. 0. 0. 0. 0. 0. 0. 0. 0. 0. 0.
      0. 0. 0. 0. 0. 0. 0. 0. 0. 0. 0. 0. 3.57142873e-02 0. 0. 0. 0. 0.
      0. 0. 0. 0. 0. 0. 0. 0. 0. 0. 0. 0. 0. 0. 0. 0. 0. 0. 0. 0. 0. 0.
      0. 0. 0. 0. 0. 0. 3.57142873e-02 0. 0. 0. 0. 0. 0. 0. 0. 0. 0. 0.
      0. 0. 0. 0. 0. 0. 0. 0. 0. 0. 0. 0. 0. 0. 0. 0. 0. 0. 0. 0.
      3.57142873e-02 0. 0. 0. 0. 0. 0. 0. 0. 0. 0. 0. 0. 0. 0. 0. 0.
      3.57142873e-02 0. 0. 0. 0. 0. 0. 0. 0. 0. 3.57142873e-02
      3.57142873e-02 0. 0. 0. 0. 0. 0. 0. 0. 0. 0. 0. 0. 0. 0. 0. 0. 0.
      0. 0. 0. 0. 0. 0. 0. 0. 0. 0. 3.57142873e-02 0. 0. 0. 0. 0. 0. 0.
      0. 3.57142873e-02 0. 0. 0. 0. 0. 0. 0. 3.57142873e-02 0. 0. 0. 0.
      0. 0. 0. 0. 0. 0. 0. 0. 0. 0. 0. 0. 0. 0. 0. 0. 0. 0. 0. 0. 0. 0.
      0. 0. 0. 0. 0. 0. 3.57142873e-02 0. 0. 0. 0. 0. 0. 0.
      3.57142873e-02 0. 0. 0. 0. 0. 0. 0. 0. 0. 0. 0. 0. 0. 0. 0.
      3.57142873e-02 0. 0. 0. 0. 0. 0. 0. 0. 0. 0. 0. 0. 0. 0. 0.
      3.57142873e-02 0. 0. 0. 0. 0. 0. 3.57142873e-02 0. 0. 0. 0. 0. 0.
      0. 0. 3.57142873e-02 0. 0. 0. 0. 0. 0. 0. 0. 0. 0. 3.57142873e-02
      0. 0. 0. 0. 0. 0. 0. 0. 0. 0. 0. 0. 0. 0. 0. 0. 0. 0. 0. 0.
      3.57142873e-02 0. 0. 0. 0. 0. 0. 0. 0. 0. 0. 0. 0. 0. 0. 0. 0. 0.
      0. 0. 0. 0. 0. 0. 0. 0. 3.57142873e-02 0. 0. 0. 0. 0. 0. 0. 0. 0.
      0. 0. 0. 0. 0. 0. 3.57142873e-02 0. 0. 0. 0. 0. 0. 0. 0. 0. 0. 0.
      0. 0. 0. 0. 0. 0. 0. 3.57142873e-02 0. 0. 0. 0. 0. 0. 0. 0. 0. 0.
      3.57142873e-02 0. 0.</_>
    <_>
      0. 5.12820520e-02 0. 0. 0. 0. 0. 0. 0. 0. 0. 0. 0. 0. 0. 0. 0. 0.
      2.56410260e-02 0. 0. 0. 0. 5.12820520e-02 0. 0. 0. 0. 0. 0. 0. 0.
      0. 0. 0. 0. 2.56410260e-02 0. 0. 0. 2.56410260e-02 0. 0. 0. 0. 0.
      0. 0. 0. 0. 0. 0. 0. 0. 0. 0. 0. 0. 0. 0. 0. 0. 0. 0. 0. 0. 0. 0.
      0. 0. 0. 0. 0. 0. 0. 0. 0. 0. 2.56410260e-02 0. 0. 0. 0. 0. 0. 0.
      0. 0. 0. 0. 0. 0. 0. 0. 0. 0. 0. 0. 0. 0. 0. 0. 0. 2.56410260e-02
      0. 0. 0. 0. 0. 0. 0. 2.56410260e-02 5.12820520e-02 0. 0. 0. 0. 0.
      0. 0. 0. 0. 0. 0. 0. 0. 0. 0. 2.56410260e-02 0. 0. 0. 0. 0. 0. 0.
      0. 0. 0. 0. 0. 0. 0. 0. 0. 2.56410260e-02 0. 0. 0. 0. 0. 0. 0. 0.
      0. 0. 0. 0. 0. 0. 2.56410260e-02 0. 0. 0. 0. 0. 0. 0. 0. 0. 0. 0.
      0. 0. 0. 0. 0. 2.56410260e-02 0. 0. 0. 0. 2.56410260e-02 0. 0. 0.
      0. 0. 0. 2.56410260e-02 0. 0. 0. 0. 0. 0. 0. 0. 0. 0. 0. 0. 0. 0.
      0. 0. 2.56410260e-02 0. 0. 0. 0. 0. 0. 0. 0. 0. 0. 0. 0. 0. 0. 0.
      0. 0. 0. 0. 2.56410260e-02 0. 0. 0. 0. 0. 0. 0. 0. 0.
      2.56410260e-02 0. 0. 0. 0. 0. 0. 0. 0. 0. 0. 0. 0. 0. 0. 0. 0.
      2.56410260e-02 0. 0. 0. 0. 0. 0. 0. 2.56410260e-02 0. 0. 0. 0. 0.
      0. 0. 0. 2.56410260e-02 0. 0. 0. 0. 0. 0. 0. 5.12820520e-02
      2.56410260e-02 0. 0. 0. 0. 0. 2.56410260e-02 0. 0. 0. 0. 0. 0. 0.
      0. 0. 0. 0. 0. 0. 0. 0. 0. 0. 0. 0. 0. 0. 0. 0. 0. 0. 0. 0. 0. 0.
      0. 0. 0. 0. 0. 0. 0. 0. 0. 0. 0. 0. 0. 0. 0. 0. 0. 0.
      2.56410260e-02 0. 0. 0. 0. 0. 0. 0. 0. 0. 0. 0. 0. 0. 0. 0. 0. 0.
      0. 0. 0. 0. 0. 0. 0. 0. 0. 0. 2.56410260e-02 0. 0. 0. 0. 0. 0. 0.
      0. 0. 0. 0. 0. 0. 2.56410260e-02 0. 0. 0. 0. 0. 0. 0. 0. 0. 0. 0.
      0. 0. 0. 2.56410260e-02 0. 0. 0. 2.56410260e-02 0. 0. 0. 0. 0.
      2.56410260e-02 0. 0. 0. 0. 0. 0. 0. 0. 0. 0. 0. 0. 0.
      2.56410260e-02 0. 0. 0. 0. 0. 0. 0. 0. 2.56410260e-02 0. 0. 0. 0.
      0. 0. 0. 0. 0. 0. 0. 0. 0. 0. 0. 0. 0. 0. 0. 0. 0. 0. 0. 0. 0. 0.
      0. 0. 0. 0. 0. 0. 0. 0. 0. 0. 0. 0. 0. 0. 0. 0. 0. 0. 0. 0. 0. 0.
      0. 0. 0. 0. 0. 0. 0. 0. 0. 0. 0. 0. 0. 0. 0. 0. 0. 0.
      2.56410260e-02 0. 0. 0. 0. 0. 0. 0. 0. 0. 2.56410260e-02 0. 0. 0.
      2.56410260e-02 0. 0. 0. 0. 0. 0. 0.</_>
    <_>
      0. 0. 0. 0. 0. 0. 0. 0. 0. 0. 0. 0. 0. 0. 0. 1.61290318e-02 0. 0.
      0. 0. 0. 0. 0. 1.61290318e-02 0. 1.61290318e-02 0. 0. 0. 0. 0.
      1.61290318e-02 1.61290318e-02 0. 0. 0. 0. 0. 0. 0. 0. 0. 0. 0. 0.
      0. 0. 0. 1.61290318e-02 0. 0. 0. 0. 0. 0. 0. 0. 0. 0. 0. 0. 0. 0.
      0. 0. 1.61290318e-02 0. 0. 0. 1.61290318e-02 0. 0. 0.
      1.61290318e-02 0. 0. 0. 0. 0. 1.61290318e-02 0. 0. 3.22580636e-02
      0. 0. 0. 0. 0. 0. 0. 0. 0. 0. 0. 1.61290318e-02 0. 0. 0. 0. 0. 0.
      0. 0. 0. 0. 3.22580636e-02 1.61290318e-02 0. 0. 0. 0. 0. 0. 0. 0.
      0. 0. 0. 0. 0. 0. 0. 0. 0. 0. 0. 0. 0. 1.61290318e-02 0. 0. 0. 0.
      0. 0. 0. 1.61290318e-02 0. 0. 0. 0. 0. 0. 0. 0. 0. 1.61290318e-02
      1.61290318e-02 0. 0. 0. 0. 0. 0. 0. 1.61290318e-02 0. 0. 0.
      1.61290318e-02 0. 0. 0. 0. 0. 0. 0. 0. 0. 3.22580636e-02
      1.61290318e-02 0. 0. 0. 0. 0. 0. 0. 0. 0. 0. 0. 0. 0. 0. 0. 0.
      1.61290318e-02 0. 0. 0. 0. 0. 0. 0. 0. 0. 0. 0. 0. 0. 0. 0. 0. 0.
      0. 0. 0. 0. 0. 0. 0. 0. 0. 0. 0. 0. 0. 1.61290318e-02 0. 0. 0. 0.
      0. 1.61290318e-02 0. 0. 0. 0. 0. 0. 0. 1.61290318e-02 0. 0. 0. 0.
      0. 0. 0. 0. 0. 0. 0. 0. 0. 1.61290318e-02 0. 0. 0. 0. 0.
      1.61290318e-02 0. 0. 0. 0. 0. 0. 0. 0. 0. 0. 0. 0. 0. 0. 0. 0. 0.
      0. 0. 0. 0. 0. 0. 0. 0. 0. 0. 1.61290318e-02 0. 0. 0. 0. 0. 0. 0.
      0. 0. 0. 0. 0. 0. 0. 0. 0. 1.61290318e-02 0. 0. 0. 0. 0. 0.
      1.61290318e-02 1.61290318e-02 0. 0. 0. 0. 0. 0. 0. 1.61290318e-02
      0. 0. 0. 0. 0. 0. 0. 0. 0. 0. 0. 0. 0. 0. 0. 0. 0. 0. 0. 0. 0. 0.
      0. 0. 0. 0. 0. 0. 0. 1.61290318e-02 0. 0. 0. 0. 0. 0. 0. 0.
      1.61290318e-02 0. 0. 0. 0. 0. 0. 1.61290318e-02 0. 0. 0. 0. 0. 0.
      0. 0. 0. 0. 0. 0. 0. 0. 0. 0. 0. 0. 1.61290318e-02 0. 0. 0. 0. 0.
      1.61290318e-02 0. 1.61290318e-02 0. 1.61290318e-02 0. 0.
      1.61290318e-02 0. 0. 0. 0. 0. 0. 0. 0. 0. 0. 1.61290318e-02 0. 0.
      0. 0. 0. 0. 0. 0. 0. 0. 0. 0. 0. 0. 0. 0. 1.61290318e-02 0.
      1.61290318e-02 0. 3.22580636e-02 0. 0. 1.61290318e-02 0. 0. 0.
      1.61290318e-02 0. 0. 0. 0. 0. 0. 0. 0. 0. 0. 0. 0. 0. 0. 0. 0. 0.
      0. 0. 0. 0. 0. 0. 0. 0. 0. 1.61290318e-02 0. 0. 0. 0.
      1.61290318e-02 0. 1.61290318e-02 0. 1.61290318e-02 0. 0. 0. 0. 0.
      1.61290318e-02 0. 1.61290318e-02 0. 1.61290318e-02 0. 0. 0. 0. 0.
      0. 0. 0. 0. 0. 0. 0. 1.61290318e-02 0. 0. 0. 1.61290318e-02 0.
      1.61290318e-02 0. 0. 0. 0. 0. 0. 0. 0. 0. 0. 0. 1.61290318e-02 0.
      0. 0. 0.</_>
    <_>
      0. 0. 0. 0. 0. 0. 0. 0. 0. 0. 2.32558139e-02 0. 0. 0. 0. 0. 0. 0.
      2.32558139e-02 0. 0. 0. 0. 0. 0. 0. 0. 0. 2.32558139e-02 0. 0. 0.
      0. 0. 0. 0. 0. 0. 0. 0. 0. 0. 0. 2.32558139e-02 0. 0. 0. 0.
      2.32558139e-02 2.32558139e-02 0. 0. 0. 0. 0. 0. 0. 0. 0. 0. 0. 0.
      0. 0. 0. 0. 0. 0. 2.32558139e-02 0. 0. 0. 0. 0. 0. 0. 0. 0.
      4.65116277e-02 0. 0. 2.32558139e-02 0. 0. 0. 0. 0. 0. 0. 0. 0. 0.
      0. 0. 0. 0. 2.32558139e-02 0. 0. 0. 0. 0. 2.32558139e-02 0. 0. 0.
      0. 0. 0. 0. 0. 0. 0. 0. 0. 0. 0. 0. 0. 0. 0. 0. 0. 0.
      2.32558139e-02 0. 0. 0. 0. 0. 2.32558139e-02 0. 0. 0. 0. 0. 0. 0.
      0. 0. 0. 0. 0. 0. 0. 0. 0. 0. 2.32558139e-02 0. 0. 0. 0. 0. 0. 0.
      0. 0. 0. 2.32558139e-02 0. 0. 0. 0. 0. 2.32558139e-02 0. 0. 0. 0.
      0. 0. 0. 0. 0. 0. 0. 2.32558139e-02 0. 0. 2.32558139e-02 0. 0. 0.
      0. 0. 0. 0. 0. 0. 2.32558139e-02 0. 0. 0. 0. 0. 0. 0. 0. 0. 0.
      2.32558139e-02 0. 0. 0. 0. 0. 0. 0. 0. 0. 0. 0. 0. 0. 0. 0. 0. 0.
      0. 0. 0. 2.32558139e-02 0. 0. 0. 0. 0. 0. 0. 0. 0. 0. 0.
      2.32558139e-02 0. 0. 0. 0. 0. 0. 0. 0. 0. 0. 0. 0. 0. 0. 0. 0. 0.
      0. 0. 0. 0. 0. 0. 0. 2.32558139e-02 0. 0. 0. 0. 0. 0. 0. 0. 0. 0.
      4.65116277e-02 0. 2.32558139e-02 0. 0. 0. 0. 0. 0. 0. 0. 0. 0. 0.
      0. 0. 0. 0. 2.32558139e-02 0. 0. 0. 0. 0. 0. 0. 0. 0. 0. 0. 0. 0.
      0. 0. 0. 0. 0. 0. 0. 0. 0. 0. 0. 0. 0. 2.32558139e-02 0. 0. 0. 0.
      4.65116277e-02 0. 0. 0. 0. 0. 0. 0. 0. 0. 0. 0. 0. 0. 0. 0. 0. 0.
      0. 0. 0. 0. 0. 0. 0. 0. 0. 0. 0. 0. 0. 0. 0. 0. 0. 0. 0. 0. 0. 0.
      0. 2.32558139e-02 2.32558139e-02 0. 0. 0. 0. 0. 0. 0. 0.
      2.32558139e-02 0. 0. 0. 0. 0. 0. 0. 0. 0. 0. 0. 0. 0. 0. 0.
      2.32558139e-02 0. 0. 0. 0. 0. 0. 0. 0. 0. 0. 0. 0. 0. 0. 0. 0. 0.
      0. 0. 0. 0. 0. 0. 0. 0. 0. 0. 0. 0. 0. 0. 0. 2.32558139e-02 0. 0.
      0. 0. 0. 0. 0. 0. 0. 0. 0. 0. 0. 0. 0. 0. 0. 2.32558139e-02 0. 0.
      0. 0. 0. 0. 0. 0. 0. 0. 0. 0. 0. 0. 0. 0. 0. 0. 2.32558139e-02 0.
      0. 0. 0. 0. 0. 2.32558139e-02 0. 0. 0. 0. 0. 0. 0. 0. 0. 0. 0. 0.
      0. 0. 0. 2.32558139e-02 0. 2.32558139e-02 0. 0. 0. 0. 0. 0. 0. 0.
      2.32558139e-02 0. 0. 0. 0. 0. 0. 0. 0. 0. 2.32558139e-02 0. 0. 0.
      0. 0. 0. 0. 0. 0. 0.</_>
    <_>
      0. 1.75438598e-02 0. 0. 0. 0. 0. 0. 0. 0. 0. 0. 0. 0. 0. 0. 0. 0.
      0. 0. 0. 0. 0. 0. 0. 0. 0. 0. 0. 0. 0. 3.50877196e-02 0. 0. 0. 0.
      0. 0. 0. 0. 0. 0. 0. 1.75438598e-02 0. 0. 0. 0. 0. 0. 0. 0. 0. 0.
      0. 0. 0. 0. 0. 0. 0. 0. 0. 0. 0. 1.75438598e-02 0. 0. 0.
      1.75438598e-02 0. 0. 0. 0. 0. 0. 0. 0. 1.75438598e-02 0. 0. 0.
      3.50877196e-02 0. 0. 0. 0. 0. 0. 0. 0. 0. 0. 1.75438598e-02 0. 0.
      0. 0. 0. 0. 0. 0. 0. 0. 0. 3.50877196e-02 0. 0. 0. 0. 0. 0. 0. 0.
      0. 0. 1.75438598e-02 0. 0. 0. 0. 0. 0. 0. 1.75438598e-02 0. 0. 0.
      0. 0. 0. 0. 0. 0. 1.75438598e-02 0. 0. 0. 1.75438598e-02 0. 0. 0.
      0. 0. 0. 0. 1.75438598e-02 3.50877196e-02 0. 1.75438598e-02 0. 0.
      0. 1.75438598e-02 0. 0. 0. 0. 0. 0. 0. 0. 0. 0. 0. 0. 0. 0. 0. 0.
      1.75438598e-02 0. 0. 0. 0. 0. 0. 0. 0. 0. 0. 0. 0. 0. 0. 0. 0. 0.
      0. 0. 0. 0. 0. 0. 0. 0. 0. 0. 0. 0. 0. 0. 0. 0. 0. 0. 0. 0.
      1.75438598e-02 0. 0. 0. 0. 0. 0. 0. 0. 0. 3.50877196e-02 0. 0. 0.
      0. 0. 0. 0. 0. 0. 0. 0. 0. 0. 1.75438598e-02 0. 0. 0. 0.
      1.75438598e-02 0. 0. 1.75438598e-02 0. 1.75438598e-02 0. 0. 0. 0.
      0. 0. 0. 0. 0. 1.75438598e-02 0. 0. 0. 0. 0. 0. 0. 0. 0. 0. 0. 0.
      0. 1.75438598e-02 0. 0. 0. 0. 0. 0. 0. 0. 0. 0. 0. 0. 0.
      1.75438598e-02 0. 0. 0. 0. 1.75438598e-02 0. 0. 0. 0. 0. 0. 0. 0.
      0. 0. 0. 0. 0. 0. 0. 0. 3.50877196e-02 0. 1.75438598e-02
      1.75438598e-02 0. 0. 0. 1.75438598e-02 0. 0. 1.75438598e-02 0. 0.
      0. 0. 0. 0. 0. 0. 0. 0. 0. 0. 0. 0. 0. 0. 0. 0. 0. 0. 0. 0. 0. 0.
      0. 0. 0. 0. 0. 0. 0. 0. 0. 0. 0. 0. 0. 0. 0. 0. 0. 0. 0. 0. 0. 0.
      3.50877196e-02 0. 0. 0. 0. 0. 0. 0. 0. 0. 0. 0. 1.75438598e-02 0.
      0. 0. 0. 0. 0. 1.75438598e-02 0. 0. 0. 0. 0. 0. 0. 0. 0.
      1.75438598e-02 0. 0. 0. 0. 0. 0. 0. 1.75438598e-02 0. 0. 0. 0. 0.
      0. 0. 0. 0. 0. 0. 0. 0. 0. 0. 0. 0. 0. 0. 0. 0. 1.75438598e-02 0.
      0. 1.75438598e-02 0. 0. 0. 0. 0. 1.75438598e-02 0. 0.
      1.75438598e-02 0. 0. 0. 0. 0. 0. 0. 0. 0. 0. 0. 0. 0. 0. 0. 0. 0.
      0. 0. 0. 0. 0. 0. 0. 0. 0. 1.75438598e-02 0. 0. 0. 0. 0. 0.
      1.75438598e-02 0. 1.75438598e-02 0. 0. 0. 0. 0. 1.75438598e-02 0.
      0. 0. 0. 0. 0. 0. 0. 0. 0. 0. 0. 0. 0. 0. 1.75438598e-02
      1.75438598e-02 0. 0. 0. 0. 0. 1.75438598e-02 0. 0. 0. 0. 0. 0. 0.
      0. 1.75438598e-02 0. 0. 0. 0. 0. 0. 0.</_>
    <_>
      0. 0. 0. 0. 0. 0. 0. 0. 0. 0. 0. 0. 0. 0. 0. 0. 0. 0. 0. 0. 0. 0.
      0. 0. 0. 0. 0. 0. 0. 0. 0. 0. 0. 0. 0. 0. 0. 0. 0. 2.22222228e-02
      0. 0. 0. 0. 0. 0. 0. 0. 0. 0. 0. 0. 0. 0. 0. 0. 0. 0.
      2.22222228e-02 0. 0. 2.22222228e-02 0. 0. 0. 0. 0. 0. 0. 0. 0. 0.
      0. 0. 0. 0. 0. 0. 0. 0. 0. 0. 0. 0. 2.22222228e-02 2.22222228e-02
      0. 0. 2.22222228e-02 0. 0. 0. 0. 0. 0. 0. 0. 0. 0. 0. 0. 0. 0.
      2.22222228e-02 0. 0. 0. 0. 0. 0. 0. 0. 0. 0. 0. 0. 0. 0. 0. 0. 0.
      0. 0. 0. 2.22222228e-02 0. 0. 0. 0. 0. 0. 0. 0. 0. 2.22222228e-02
      0. 0. 0. 0. 0. 2.22222228e-02 0. 0. 0. 0. 0. 0. 0. 0. 0. 0. 0. 0.
      0. 0. 0. 0. 0. 0. 2.22222228e-02 2.22222228e-02 0. 0. 0. 0. 0.
      2.22222228e-02 0. 0. 0. 0. 0. 0. 0. 0. 0. 0. 0. 0. 0. 0. 0. 0. 0.
      0. 0. 0. 0. 0. 2.22222228e-02 0. 0. 0. 0. 0. 0. 0. 2.22222228e-02
      0. 0. 0. 0. 0. 0. 0. 0. 0. 0. 0. 0. 2.22222228e-02 2.22222228e-02
      0. 0. 0. 0. 0. 2.22222228e-02 0. 0. 0. 0. 0. 0. 0. 0. 0. 0. 0. 0.
      0. 0. 0. 0. 0. 0. 0. 2.22222228e-02 0. 0. 2.22222228e-02
      2.22222228e-02 0. 0. 0. 0. 0. 0. 2.22222228e-02 0. 0. 0.
      2.22222228e-02 0. 0. 0. 0. 0. 0. 0. 0. 0. 0. 0. 0. 0. 0. 0. 0.
      2.22222228e-02 2.22222228e-02 0. 0. 0. 0. 0. 0. 0. 0. 0. 0. 0. 0.
      0. 0. 4.44444455e-02 0. 0. 0. 0. 0. 0. 0. 0. 0. 0. 0. 0. 0. 0. 0.
      0. 2.22222228e-02 0. 0. 0. 0. 0. 0. 2.22222228e-02 0. 0. 0. 0. 0.
      0. 0. 0. 0. 0. 0. 0. 0. 0. 0. 0. 0. 0. 0. 0. 0. 0. 0. 0. 0. 0. 0.
      0. 0. 0. 0. 0. 0. 0. 0. 0. 0. 0. 0. 0. 0. 0. 0. 0. 0. 0. 0. 0. 0.
      0. 0. 0. 0. 2.22222228e-02 0. 0. 0. 0. 0. 0. 0. 0. 0. 0.
      2.22222228e-02 0. 0. 0. 0. 0. 0. 0. 0. 4.44444455e-02 0. 0. 0. 0.
      0. 0. 4.44444455e-02 0. 0. 0. 0. 2.22222228e-02 0. 0. 0. 0. 0. 0.
      0. 0. 0. 0. 0. 0. 0. 0. 2.22222228e-02 0. 0. 0. 2.22222228e-02 0.
      0. 0. 0. 0. 0. 0. 0. 0. 0. 0. 0. 0. 0. 0. 0. 0. 0. 0. 0. 0. 0. 0.
      0. 0. 0. 0. 0. 0. 0. 0. 0. 2.22222228e-02 2.22222228e-02 0. 0. 0.
      0. 2.22222228e-02 0. 0. 2.22222228e-02 0. 0. 0. 0. 0. 0.
      2.22222228e-02 0. 0. 2.22222228e-02 0. 0. 0. 0. 0. 0. 0. 0. 0. 0.
      0. 0. 0. 0. 0. 0. 0. 0. 0. 0. 0. 0. 0. 0. 0. 0. 0. 0. 0. 0. 0. 0.
      0. 0. 2.22222228e-02 0. 0. 0. 0. 0. 0. 0. 0. 0. 0.</_>
    <_>
      3.44827585e-02 1.72413792e-02 0. 0. 0. 0. 0. 0. 0. 1.72413792e-02
      0. 0. 0. 0. 0. 0. 0. 0. 0. 0. 0. 0. 0. 0. 0. 0. 0. 0. 0. 0. 0. 0.
      1.72413792e-02 0. 0. 1.72413792e-02 0. 0. 0. 0. 0. 3.44827585e-02
      0. 0. 1.72413792e-02 0. 0. 0. 0. 0. 0. 0. 0. 0. 0. 0. 0. 0. 0. 0.
      0. 0. 0. 3.44827585e-02 0. 0. 0. 0. 0. 0. 0. 0. 1.72413792e-02 0.
      0. 0. 0. 0. 0. 0. 0. 0. 0. 0. 0. 0. 0. 0. 0. 0. 0. 0.
      1.72413792e-02 0. 0. 0. 0. 0. 0. 0. 0. 0. 0. 0. 0. 0. 0. 0. 0. 0.
      0. 0. 1.72413792e-02 1.72413792e-02 0. 0. 0. 0. 0. 0. 0. 0. 0. 0.
      1.72413792e-02 0. 0. 0. 0. 0. 0. 0. 0. 0. 0. 0. 0. 0. 0. 0. 0. 0.
      0. 1.72413792e-02 0. 0. 0. 0. 0. 0. 0. 0. 0. 1.72413792e-02
      1.72413792e-02 0. 0. 0. 0. 0. 0. 1.72413792e-02 0. 0. 0. 0. 0. 0.
      0. 0. 0. 1.72413792e-02 1.72413792e-02 0. 0. 0. 0. 0. 0. 0. 0. 0.
      0. 0. 0. 0. 0. 0. 0. 0. 0. 0. 0. 0. 0. 0. 1.72413792e-02 0. 0. 0.
      0. 0. 0. 0. 1.72413792e-02 0. 1.72413792e-02 0. 0. 1.72413792e-02
      0. 0. 0. 0. 0. 0. 0. 0. 0. 0. 0. 0. 0. 0. 0. 0. 0. 0. 0.
      1.72413792e-02 0. 0. 0. 0. 0. 0. 0. 0. 0. 0. 0. 0. 0. 0. 0. 0. 0.
      0. 0. 3.44827585e-02 1.72413792e-02 0. 0. 0. 0. 0. 0. 0. 0. 0. 0.
      0. 0. 0. 0. 0. 0. 0. 0. 0. 0. 0. 0. 1.72413792e-02 0. 0. 0. 0. 0.
      0. 0. 0. 0. 0. 0. 0. 0. 0. 0. 0. 0. 0. 0. 0. 0. 0. 0. 0. 0. 0. 0.
      0. 0. 1.72413792e-02 0. 0. 0. 0. 0. 0. 0. 1.72413792e-02 0. 0. 0.
      0. 0. 0. 0. 0. 0. 0. 0. 1.72413792e-02 0. 0. 0. 0. 0. 0. 0. 0. 0.
      0. 0. 0. 0. 0. 1.72413792e-02 0. 0. 0. 0. 0. 0. 0. 0. 0.
      1.72413792e-02 0. 0. 0. 0. 0. 0. 0. 0. 0. 0. 1.72413792e-02 0. 0.
      0. 0. 0. 0. 0. 0. 1.72413792e-02 1.72413792e-02 0. 0. 0. 0. 0. 0.
      0. 1.72413792e-02 0. 0. 1.72413792e-02 0. 0. 0. 0. 0. 0. 0. 0. 0.
      1.72413792e-02 0. 0. 0. 0. 1.72413792e-02 1.72413792e-02 0. 0. 0.
      0. 0. 0. 0. 0. 0. 0. 0. 0. 0. 0. 0. 0. 0. 1.72413792e-02
      1.72413792e-02 0. 0. 0. 1.72413792e-02 0. 0. 0. 0. 0. 0. 0. 0. 0.
      0. 0. 1.72413792e-02 0. 0. 0. 0. 6.89655170e-02 0. 0. 0. 0. 0. 0.
      0. 0. 0. 0. 0. 0. 0. 0. 0. 0. 0. 0. 0. 0. 0. 1.72413792e-02 0. 0.
      0. 0. 0. 0. 0. 0. 0. 1.72413792e-02 0. 0. 0. 0. 1.72413792e-02 0.
      0. 0. 0. 0. 0. 0. 0. 0. 0. 0. 0. 0. 0. 0. 0. 0. 0. 0. 0. 0. 0. 0.
      0. 0. 0. 0. 0. 0. 1.72413792e-02 1.72413792e-02 0. 0. 0. 0.
      1.72413792e-02 0. 0.</_>
    <_>
      1.96078438e-02 0. 0. 0. 1.96078438e-02 0. 0. 0. 0. 0. 0. 0. 0. 0.
      0. 0. 0. 0. 0. 0. 3.92156877e-02 0. 0. 0. 0. 0. 0. 0. 0. 0. 0. 0.
      0. 0. 0. 0. 0. 0. 0. 0. 0. 0. 0. 0. 0. 0. 0. 0. 0. 0. 0. 0. 0. 0.
      0. 0. 0. 0. 0. 0. 1.96078438e-02 1.96078438e-02 0. 0.
      1.96078438e-02 0. 0. 0. 0. 0. 0. 0. 0. 0. 0. 0. 0. 0. 0. 0. 0. 0.
      0. 0. 0. 0. 0. 0. 0. 0. 0. 0. 0. 0. 0. 0. 0. 0. 0. 0. 0. 0. 0. 0.
      1.96078438e-02 0. 0. 0. 0. 0. 0. 1.96078438e-02 0. 0. 0. 0. 0. 0.
      0. 0. 1.96078438e-02 0. 0. 0. 0. 0. 0. 0. 0. 0. 0. 0. 0. 0. 0. 0.
      0. 0. 0. 0. 1.96078438e-02 0. 0. 0. 0. 0. 0. 0. 0. 1.96078438e-02
      0. 1.96078438e-02 0. 0. 0. 0. 0. 0. 0. 0. 0. 0. 0. 1.96078438e-02
      0. 0. 0. 0. 0. 0. 0. 0. 1.96078438e-02 0. 1.96078438e-02 0. 0. 0.
      0. 0. 0. 0. 0. 0. 0. 0. 0. 1.96078438e-02 0. 0. 0. 0. 0. 0. 0.
      1.96078438e-02 0. 0. 1.96078438e-02 0. 0. 0. 0. 0. 0. 0. 0. 0. 0.
      0. 0. 0. 0. 0. 0. 0. 0. 0. 0. 0. 0. 0. 0. 0. 0. 0. 0. 0. 0. 0. 0.
      0. 0. 0. 0. 0. 0. 0. 0. 0. 0. 0. 0. 0. 0. 0. 0. 0. 0. 0. 0. 0. 0.
      0. 0. 3.92156877e-02 0. 0. 0. 0. 0. 0. 0. 0. 0. 0. 0. 0. 0. 0.
      3.92156877e-02 0. 0. 0. 0. 0. 0. 0. 3.92156877e-02 1.96078438e-02
      0. 0. 0. 0. 0. 0. 0. 1.96078438e-02 0. 0. 0. 3.92156877e-02 0. 0.
      0. 0. 0. 0. 0. 1.96078438e-02 0. 0. 1.96078438e-02 0. 0. 0. 0. 0.
      0. 0. 0. 0. 0. 0. 0. 1.96078438e-02 1.96078438e-02 0. 0. 0. 0. 0.
      0. 0. 0. 0. 0. 0. 0. 0. 0. 0. 0. 0. 0. 0. 0. 0. 0. 0. 0. 0.
      5.88235296e-02 0. 0. 0. 0. 0. 0. 0. 0. 0. 0. 0. 0. 0. 0. 0. 0. 0.
      0. 0. 0. 3.92156877e-02 0. 0. 1.96078438e-02 0. 0. 1.96078438e-02
      0. 0. 0. 0. 0. 0. 0. 0. 0. 0. 1.96078438e-02 0. 0. 0. 0. 0. 0. 0.
      0. 0. 0. 0. 0. 0. 1.96078438e-02 0. 1.96078438e-02 0. 0. 0.
      1.96078438e-02 0. 0. 0. 0. 1.96078438e-02 0. 0. 0. 0. 0. 0. 0. 0.
      0. 0. 0. 0. 0. 0. 0. 0. 0. 1.96078438e-02 0. 0. 0. 0. 0. 0. 0. 0.
      0. 0. 0. 0. 0. 0. 0. 1.96078438e-02 0. 0. 1.96078438e-02 0. 0. 0.
      0. 0. 0. 0. 0. 0. 0. 0. 0. 0. 0. 0. 0. 0. 0. 0. 0. 0. 0. 0. 0. 0.
      0. 0. 0. 0. 0. 0. 1.96078438e-02 0. 0. 0. 0. 1.96078438e-02 0. 0.
      0. 1.96078438e-02 0. 0. 0. 0. 0. 0. 0. 0. 0. 0. 0. 0. 0. 0. 0. 0.
      0. 0. 0. 0. 0. 0. 0. 0. 0. 0. 0. 0.</_>
    <_>
      0. 0. 0. 0. 0. 0. 0. 0. 0. 0. 0. 0. 0. 0. 0. 0. 0. 0. 0. 0. 0. 0.
      0. 1.63934417e-02 1.63934417e-02 0. 0. 0. 0. 0. 0. 1.63934417e-02
      0. 0. 0. 0. 3.27868834e-02 0. 0. 0. 0. 1.63934417e-02 0. 0. 0. 0.
      1.63934417e-02 0. 0. 0. 0. 0. 0. 0. 0. 0. 0. 0. 0. 0. 0.
      1.63934417e-02 0. 0. 0. 0. 0. 0. 0. 0. 0. 0. 0. 0. 0. 0.
      1.63934417e-02 3.27868834e-02 0. 1.63934417e-02 0. 0. 0. 0. 0. 0.
      0. 0. 0. 1.63934417e-02 0. 0. 0. 0. 0. 0. 0. 0. 0. 0. 0. 0. 0. 0.
      0. 0. 0. 0. 0. 0. 0. 0. 0. 0. 0. 0. 0. 0. 0. 0. 0. 0. 0. 0.
      1.63934417e-02 0. 0. 0. 0. 0. 0. 0. 0. 0. 0. 0. 1.63934417e-02
      1.63934417e-02 1.63934417e-02 0. 0. 0. 0. 0. 0. 0. 0.
      3.27868834e-02 0. 1.63934417e-02 0. 0. 0. 0. 0. 0. 0. 0. 0. 0. 0.
      0. 0. 0. 0. 0. 0. 1.63934417e-02 1.63934417e-02 0. 0. 0. 0. 0. 0.
      0. 0. 0. 0. 0. 0. 0. 0. 0. 0. 0. 0. 0. 0. 0. 0. 0. 0. 0. 0. 0. 0.
      0. 0. 0. 0. 0. 3.27868834e-02 0. 0. 0. 0. 0. 0. 1.63934417e-02 0.
      0. 0. 0. 0. 0. 0. 0. 0. 0. 0. 0. 0. 0. 0. 1.63934417e-02 0. 0. 0.
      0. 0. 0. 1.63934417e-02 0. 0. 0. 0. 0. 0. 0. 0. 0. 0. 0. 0. 0. 0.
